0.17609664797782898 0.021840257570147514 -0.04771605506539345 0.16659888625144958 -0.10253097862005234 0.037207916378974915 0.19004593789577484 0.14796212315559387 -0.1175406277179718 0.11497197300195694 -0.13067969679832458 0.01673848181962967 -0.06479614973068237 0.006173355504870415 0.1623906046152115 -0.16798073053359985 0.2043638825416565 -0.05248304456472397 0.03721560165286064 0.09649974852800369 0.1481347382068634 -0.013324449770152569 0.001010965439490974 -0.12090048938989639 -0.21907180547714233 0.03575936332345009 0.023786813020706177 -0.05645959824323654 0.02788649871945381 0.029502365738153458 -0.09268955886363983 -0.13399481773376465 -0.024053964763879776 -0.011380317620933056 -0.02870585210621357 0.0724300667643547 -0.026754703372716904 0.015423869714140892 -0.006963321007788181 0.07931160181760788 -0.014691992662847042 0.026305489242076874
-0.24310027062892914 0.06558944284915924 -0.10737553983926773 0.20062099397182465 -0.022981537505984306 0.08154650032520294 -0.20694249868392944 0.1957751214504242 -0.19979816675186157 -0.16754598915576935 -0.03788027912378311 0.05565144121646881 -0.16668163239955902 -0.022992974147200584 0.0003238371282350272 0.07385708391666412 0.16947191953659058 0.17977479100227356 -0.014392983168363571 -0.10903196781873703 -0.12336578220129013 -0.1788949817419052 0.1275002658367157 -0.0285093504935503 -0.11357071995735168 -0.14111770689487457 -0.0741727203130722 -0.049814507365226746 -0.016052234917879105 -0.0041988687589764595 -0.0673663541674614 0.12464628368616104 0.032731860876083374 -0.07558061182498932 -0.08170793950557709 -0.08784262835979462 0.0037506623193621635 -0.07920680940151215 -0.03144008293747902 0.02862245962023735 0.11550140380859375 0.02345220558345318
-0.012086835689842701 -0.0461527518928051 0.1355905830860138 -0.06521105766296387 0.042937710881233215 0.04614834859967232 -0.04650120809674263 -0.009842382743954659 0.12719574570655823 0.21219776570796967 -0.05552570894360542 -0.12576749920845032 0.14460468292236328 0.044013723731040955 0.003809159155935049 -0.1228005439043045 -0.08709485083818436 -0.11097800731658936 0.1379527598619461 0.13204587996006012 -0.07284369319677353 -0.08225440233945847 0.18204180896282196 0.12038339674472809 -0.16308987140655518 -0.12770210206508636 0.08238613605499268 0.021283522248268127 0.019795075058937073 0.07441075891256332 -0.022120852023363113 -0.1354999542236328 0.12327739596366882 -0.02175162173807621 0.1574430912733078 0.12497428804636002 0.017970144748687744 -0.14444614946842194 -0.06852099299430847 -0.0871698334813118 0.13435181975364685 0.010851011611521244
-0.08819521218538284 0.12158320099115372 0.11909890919923782 0.05272245407104492 0.084079310297966 0.04280679672956467 0.031197374686598778 -0.06490865349769592 -0.09690770506858826 0.09545200318098068 -0.07386739552021027 0.1389876902103424 -0.1287432461977005 0.025238795205950737 -0.11659667640924454 0.08654284477233887 -0.10655990988016129 0.12631762027740479 0.04370633512735367 0.08573458343744278 0.003397292923182249 -0.014312779530882835 -0.03066754899919033 0.1142873764038086 -0.012142044492065907 -0.007581975311040878 -0.13002611696720123 -0.06994035840034485 0.09413333237171173 -0.09022360295057297 -0.01928373984992504 -0.012195787392556667 0.08816125243902206 0.09106758236885071 -0.03811867535114288 -0.027410345152020454 -0.014817488379776478 0.044275373220443726 0.050323449075222015 -0.10586576163768768 0.05332264304161072 -0.08323942869901657
-0.09778701514005661 0.11550100147724152 -0.0005888958694413304 0.04577961564064026 -0.032994408160448074 0.10128729790449142 0.08871683478355408 0.03320726007223129 0.05765964835882187 -0.16296616196632385 -0.12911589443683624 0.13045091927051544 0.1377565711736679 0.03569093346595764 -0.08501031994819641 0.04967976361513138 0.053389184176921844 -0.029628491029143333 -0.07055074721574783 -0.028228357434272766 0.22899603843688965 0.13735194504261017 0.0073975673876702785 -0.10007176548242569 0.2088567167520523 -0.0256063099950552 -0.2098722755908966 -0.09173232316970825 -0.06155963987112045 -0.1665174812078476 -0.027550766244530678 -0.13768355548381805 -0.09759386628866196 -0.11673547327518463 0.09755674004554749 -0.15045465528964996 0.06930078566074371 0.13814294338226318 0.06006159633398056 0.08719995617866516 0.08392289280891418 -0.026329657062888145
0.10761691629886627 0.2744470238685608 0.1017380952835083 0.1041017472743988 -0.04472945258021355 0.016654394567012787 0.11255723237991333 0.23325245082378387 0.09915389120578766 -0.04246705770492554 -0.03208934888243675 0.03823009133338928 -0.10948256403207779 -0.18541169166564941 0.2091536521911621 -0.17956405878067017 0.16140584647655487 -0.039761628955602646 -0.11379491537809372 -0.09315400570631027 0.14694321155548096 0.13108772039413452 -0.05360830947756767 -0.08431781828403473 -0.20981228351593018 -0.07881554216146469 -0.04992794245481491 -0.00978659838438034 -0.08925820142030716 0.031160583719611168 -0.07447638362646103 -0.02374650165438652 0.017594609409570694 -0.11664919555187225 0.06331159919500351 0.032804008573293686 -0.004230975639075041 0.046765539795160294 -0.07472869008779526 -0.03147256746888161 -0.01243199035525322 0.1265450417995453
-0.059106264263391495 -0.03324133902788162 -0.0010399699676781893 0.12242533266544342 0.09357119351625443 -0.028780953958630562 0.09485821425914764 -0.14355896413326263 0.18268194794654846 0.23295855522155762 -0.058364298194646835 0.006631259806454182 0.23165608942508698 0.15533238649368286 -0.03453371673822403 0.023455725982785225 -0.07135794311761856 0.08112384378910065 -0.01672242023050785 -0.09897051006555557 0.13747550547122955 -0.11475099623203278 -0.0852891355752945 0.17305812239646912 -0.10668430477380753 -0.15182949602603912 0.015060734935104847 -0.045804839581251144 -0.09472959488630295 0.11017138510942459 -0.03600161522626877 0.08693063259124756 -0.15350031852722168 0.07980965822935104 -0.12442123144865036 0.11059603840112686 -0.12211157381534576 -0.031201057136058807 0.01881113462150097 -0.06646523624658585 0.18603403866291046 0.04877610132098198
0.199978306889534 -0.15041013062000275 -0.0005052413907833397 -0.04444122686982155 -0.0926433578133583 0.1292574554681778 0.13418413698673248 0.007550253067165613 -0.047437507659196854 0.09547912329435349 -0.07722663879394531 0.11755133420228958 -0.19967424869537354 -0.06696124374866486 -0.16057825088500977 0.0031600298825651407 -0.07934049516916275 -0.07963565737009048 -0.0743182897567749 -0.09768250584602356 0.0960964486002922 -0.04549252241849899 -0.04231929033994675 -0.10633149743080139 -0.0052175321616232395 0.058817051351070404 0.1145646944642067 -0.056948792189359665 -0.06457486003637314 -0.021085310727357864 0.07154708355665207 0.07405367493629456 -0.003938413690775633 0.018226342275738716 0.05514690652489662 0.05575781315565109 0.03652702644467354 0.06633250415325165 0.07545384764671326 0.10403245687484741 0.09500361233949661 0.07627353817224503
0.1435910165309906 -0.11865148693323135 0.19726742804050446 -0.21862570941448212 -0.05881178751587868 0.03721926361322403 0.11166566610336304 -0.07431149482727051 -0.1262083649635315 0.06311687082052231 -0.25189492106437683 0.034255895763635635 -0.13733503222465515 -0.17055107653141022 0.09766028076410294 0.23602525889873505 -0.012761136516928673 0.1148553416132927 0.05365889519453049 0.08600471913814545 -0.10564678907394409 0.12768910825252533 0.1552555412054062 -0.07210739701986313 0.1366809755563736 0.08401156961917877 -0.1267383098602295 0.0050586857832968235 -0.18547755479812622 0.03723222762346268 -0.10718771070241928 -0.04348525404930115 0.13576044142246246 0.1459656059741974 -0.07478336244821548 -0.06242578849196434 -0.002066997578367591 -0.0576237216591835 0.09634856134653091 0.1449906975030899 0.14140856266021729 -0.004660904407501221
0.028556665405631065 0.12506070733070374 -0.10451480746269226 0.00787117425352335 -0.046619292348623276 -0.12125910818576813 -0.012988806702196598 0.12118931114673615 -0.010948605835437775 -0.07621375471353531 0.01115763746201992 0.08577597886323929 -0.1708696037530899 -0.18523582816123962 0.1909349262714386 -0.06180720031261444 0.017414433881640434 0.14665766060352325 0.1557060033082962 0.16021102666854858 0.013665691949427128 -0.18324913084506989 0.0913960412144661 -0.11957477033138275 -0.1602485328912735 0.1403014212846756 -0.07886635512113571 0.18148642778396606 -0.05333321541547775 -0.01635967381298542 0.17742879688739777 0.23696079850196838 -0.009367207996547222 0.041789863258600235 -0.14530117809772491 0.05964447185397148 -0.06096430867910385 -0.12388017028570175 -0.07929679751396179 -0.00931509118527174 0.10943901538848877 0.0743643119931221
0.23727303743362427 -0.10295181721448898 0.10620753467082977 0.04036112129688263 0.048427414149045944 -0.06669314205646515 0.0912824273109436 -0.16751931607723236 -0.04118120297789574 -0.09119238704442978 -0.0331726148724556 -0.05270944908261299 -0.16117295622825623 -0.08682363480329514 -0.20589998364448547 0.20353543758392334 -0.09540955722332001 0.09491216391324997 0.012032479047775269 0.05899698659777641 0.0034370622597634792 0.07178797572851181 -0.16777074337005615 0.1281224638223648 -0.06561612337827682 0.11270751804113388 -0.09630387276411057 -0.08671863377094269 -0.020747289061546326 -0.0006568661192432046 0.019851235672831535 -0.024382492527365685 -0.006236493121832609 -0.04120850935578346 0.07498932629823685 0.19481201469898224 0.1378202736377716 -0.05920633301138878 -0.07717617601156235 0.09917197376489639 0.06566484272480011 -0.03588217496871948
0.09183228015899658 0.015326545573771 0.10140804201364517 0.1378776878118515 0.031228240579366684 -0.09330369532108307 0.24595515429973602 0.13722926378250122 -0.0861622765660286 0.01805001311004162 0.11079034954309464 0.2501157820224762 -0.062061555683612823 -0.20960462093353271 -0.00931504275649786 -0.058377958834171295 0.09000667184591293 0.009678577072918415 -0.15968424081802368 0.0411401093006134 0.14015308022499084 0.06943828612565994 0.052597131580114365 -0.08391961455345154 -0.15677645802497864 -0.04857281967997551 -0.12969812750816345 0.045285746455192566 -0.05695607140660286 0.004741471726447344 -0.12367569655179977 -0.11368314176797867 0.018742559477686882 -0.055885978043079376 -0.03477804735302925 -0.07307431846857071 -0.07392100244760513 -0.03066401556134224 0.06333352625370026 -0.09176886081695557 0.015078007243573666 0.004346433095633984
0.00032547832233831286 -0.025265183299779892 0.18834270536899567 -0.023942112922668457 -0.04647711664438248 0.045009005814790726 -0.04110367223620415 0.12304285913705826 0.1003664880990982 -0.05589449405670166 0.1967645138502121 -0.09212006628513336 -0.007834837771952152 0.17037621140480042 0.09875388443470001 -0.014826932922005653 -0.059834253042936325 0.15960271656513214 0.1471015214920044 -0.08434351533651352 0.19100530445575714 -0.10576038807630539 -0.13145168125629425 -0.04022112488746643 0.19262154400348663 -0.22128570079803467 0.15224304795265198 -0.13095565140247345 -0.15270884335041046 0.09385884553194046 0.003640959272161126 -0.07411597669124603 -0.03987807780504227 -0.09946580231189728 0.01066657155752182 0.2139078825712204 -0.03412406146526337 0.01415282767266035 -0.05940001457929611 -0.028116444125771523 -0.09505799412727356 -0.00355310901068151
-0.13065707683563232 0.1795215606689453 -0.2326899915933609 0.08707697689533234 -0.014137976802885532 0.017070647329092026 -0.21637524664402008 0.1368526667356491 -0.06699658185243607 -0.0306421909481287 0.13489942252635956 0.05514413118362427 -0.27802738547325134 -0.08060671389102936 -0.018910804763436317 -0.30254507064819336 0.09754977375268936 0.07029814273118973 -0.03560015186667442 0.08318069577217102 0.32820576429367065 -0.08061882108449936 -0.10308319330215454 0.07787210494279861 -0.08816251158714294 0.09962064772844315 0.057082951068878174 0.0003286293940618634 0.07496921718120575 -0.060805875808000565 -0.07085701078176498 0.048387687653303146 -0.03848802670836449 -0.06743162870407104 -0.08360184729099274 -0.07272665947675705 -0.1149369478225708 0.013005287386476994 -0.011337659321725368 -0.11943390220403671 -0.05247272178530693 -0.008852001279592514
0.023395724594593048 0.1310749053955078 0.04472891613841057 -0.10687946528196335 0.010269719175994396 -0.03701851889491081 0.1199408546090126 -0.11354055255651474 0.17975680530071259 -0.10816806554794312 0.15185397863388062 -0.14390023052692413 0.2456347495317459 0.09162651002407074 0.07322122901678085 0.15054631233215332 0.003465094603598118 0.017569828778505325 0.20991283655166626 -0.17523154616355896 0.10083196312189102 -0.1407930999994278 0.20098182559013367 0.03315000608563423 -0.12155216187238693 -0.27033501863479614 0.020171334967017174 -0.030505850911140442 0.10592548549175262 -0.021876059472560883 -0.011552196927368641 -0.11966752260923386 -0.021993404254317284 -0.11603012681007385 -0.0703277736902237 -0.08489403873682022 0.039497725665569305 -0.021926438435912132 -0.1413513869047165 -0.06806265562772751 -0.07581841945648193 -0.13009625673294067
0.10954421758651733 -0.12254543602466583 -0.08868437260389328 -0.13690806925296783 -0.10565442591905594 0.01957552880048752 0.051100581884384155 0.004356002435088158 0.0853990763425827 -0.10005979239940643 -0.0011938080424442887 -0.025116318836808205 -0.2372693419456482 -0.2225366085767746 -0.0620996467769146 0.056818049401044846 0.037110161036252975 -0.03780099377036095 0.17765888571739197 0.18556474149227142 0.013373617082834244 -0.11966311931610107 -0.08979573100805283 0.028751475736498833 -0.008274563588202 0.016478972509503365 -0.09257450699806213 -0.06604762375354767 -0.06864698976278305 -0.053361181169748306 -0.06044779717922211 0.0887092724442482 -0.016106637194752693 -0.0032861572690308094 -0.07696663588285446 -0.01114837359637022 -0.014527767896652222 0.1342650055885315 0.11025545746088028 -0.029819868505001068 0.01496796403080225 0.05861567333340645
0.04404253140091896 0.2129455804824829 -0.014424150809645653 0.07647876441478729 -0.08453358709812164 0.18628451228141785 -0.08390109241008759 0.06368774175643921 -0.15287120640277863 0.11456575989723206 -0.03906923159956932 0.046932414174079895 -0.2553415596485138 0.006233539432287216 0.10507864505052567 -0.18369677662849426 0.15893211960792542 0.09709960967302322 0.17807480692863464 0.2088792622089386 0.22382910549640656 -0.01522680651396513 0.06397628784179688 -0.04082493856549263 -0.043427396565675735 0.1780591756105423 0.049333203583955765 -0.09872931241989136 0.13421352207660675 0.09241492301225662 -0.08862485736608505 0.00855092890560627 0.01429347787052393 0.0910874679684639 0.021813029423356056 0.0927184522151947 -0.013164221309125423 -0.06844104081392288 -0.026262592524290085 0.020002832636237144 0.01624072715640068 0.05456016585230827
0.04940560460090637 -0.01943853683769703 -0.13435731828212738 0.18632210791110992 0.14421100914478302 0.01086545642465353 -0.19215521216392517 0.10579510778188705 0.1589203029870987 0.1224454715847969 -0.14836485683918 -0.07036060839891434 -0.03666790947318077 0.13153360784053802 0.20652320981025696 0.09335136413574219 -0.1421026885509491 0.17517757415771484 0.030355142429471016 0.12466783076524734 -0.031583502888679504 0.05534406378865242 0.012732995674014091 0.17733441293239594 -0.08355683833360672 -0.01916349306702614 0.12489423155784607 0.06138572469353676 -0.061543893069028854 0.07986493408679962 0.01915210485458374 0.17245496809482574 0.08192664384841919 -0.048050884157419205 -0.15311303734779358 -0.12973769009113312 -0.1061171367764473 0.027480144053697586 -0.14634616672992706 -0.13253362476825714 -0.09809484332799911 -0.07823730260133743
-0.11132923513650894 -0.2265777736902237 0.09916750341653824 -0.20626547932624817 -0.018321793526411057 0.07823874056339264 0.19278673827648163 -0.23438888788223267 0.15724894404411316 0.09792439639568329 0.1848282516002655 -0.11767575889825821 0.15966612100601196 0.19112305343151093 0.17366410791873932 -0.038556236773729324 0.14478608965873718 0.21420182287693024 -0.19333937764167786 -0.1291382610797882 -0.0993369072675705 -0.20524299144744873 -0.027281085029244423 -0.158027783036232 0.059982411563396454 0.17776715755462646 -0.07915972918272018 0.04242291301488876 -0.02395174279808998 0.07304555177688599 -0.08297066390514374 0.10102928429841995 0.042775705456733704 -0.0024830366019159555 -0.009168623015284538 -0.00042812619358301163 -0.07864704728126526 -0.09928525984287262 0.04173766449093819 0.019468581303954124 -0.010137288831174374 0.04767167940735817
0.010791209526360035 -0.08250634372234344 0.006577916443347931 0.07536204904317856 0.08289919048547745 0.1290038824081421 0.21605512499809265 -0.18297886848449707 0.1822694092988968 -0.0012312562903389335 0.15549367666244507 -0.2711139917373657 0.2469976395368576 0.21884973347187042 0.098896324634552 -0.16371168196201324 0.08994495868682861 0.10787756741046906 -0.1271079033613205 0.03977757692337036 0.005233371164649725 -0.09250546991825104 0.08184218406677246 0.06496340036392212 -0.09175942838191986 -0.04484677314758301 -0.03141148015856743 -0.03087812289595604 0.0198486540466547 -0.10676073282957077 -0.10360996425151825 0.043612513691186905 0.03804036229848862 0.015771817415952682 0.10308921337127686 0.08257859945297241 0.046654630452394485 0.09298598021268845 -0.11635097116231918 0.03992404788732529 0.12257158011198044 0.0009205730748362839
-0.10627439618110657 0.11364784091711044 0.08302608132362366 0.07473356276750565 -0.021609924733638763 0.08849560469388962 -0.1043756976723671 -0.14862766861915588 -0.08215790241956711 -0.09423719346523285 -0.028490137308835983 -0.08628007769584656 0.05420318990945816 -0.04380021616816521 0.03978749364614487 -0.1748925894498825 0.020856594666838646 0.0664212554693222 -0.035070791840553284 0.010466248728334904 0.1651766002178192 -0.060636285692453384 -0.015087940730154514 -0.09024222195148468 -0.1902586817741394 0.02174277976155281 0.12718802690505981 -0.17850512266159058 0.21561382710933685 -0.06774888187646866 0.008776119910180569 -0.15616479516029358 -0.09026192128658295 -0.13500778377056122 0.07533467561006546 -0.11834998428821564 -0.2238004356622696 -0.1488080471754074 -0.05449032038450241 0.010940935462713242 0.17583085596561432 -0.07265812158584595
-0.11395378410816193 -0.016100937500596046 0.08230596035718918 -0.09854884445667267 0.10645951330661774 0.02259598672389984 -0.10625764727592468 -0.20687443017959595 0.0020546570885926485 -0.20202676951885223 0.1188427209854126 -0.07271068543195724 0.018627135083079338 -0.2872985899448395 -0.1541435718536377 -0.12358922511339188 -0.1250561773777008 0.0681631788611412 0.2658955156803131 0.10511019825935364 0.0899086520075798 -0.10736402869224548 0.14286088943481445 -0.023679334670305252 -0.08993124216794968 0.11773476004600525 0.012033164501190186 -0.03453444316983223 0.016381165012717247 0.006424529943615198 0.1526896357536316 -0.005151564721018076 0.09913668781518936 -0.09689337760210037 -0.07739169150590897 -0.03898659721016884 0.05801741033792496 0.02383439987897873 0.10616667568683624 0.04281274974346161 -0.11170440167188644 -0.033343326300382614
0.1516159474849701 0.07526526600122452 0.12367012351751328 0.13971780240535736 -0.06712263822555542 0.1524132937192917 0.14802011847496033 0.18153037130832672 0.07598763704299927 -0.1754998117685318 0.14100895822048187 0.009730080142617226 -0.08441082388162613 -0.12979064881801605 0.1814172863960266 0.12026351690292358 0.07603608816862106 0.0014954233774915338 -0.20692242681980133 0.08434190601110458 -0.03972717002034187 -0.014354567043483257 0.05126198008656502 0.05462612584233284 0.030794868245720863 0.09405846148729324 -0.11632265895605087 -0.02083989977836609 0.08503538370132446 -0.06282927840948105 -0.026330338791012764 -0.05570891872048378 -0.04650621488690376 -0.09205278009176254 -0.11238828301429749 -0.033562541007995605 -0.019726470112800598 0.0167282372713089 -0.029847903177142143 0.07120093703269958 0.04519074410200119 -0.016337044537067413
0.043909624218940735 -0.13310806453227997 -0.041585735976696014 0.01666475459933281 0.004016336053609848 0.051984865218400955 -0.0725255236029625 -0.15697185695171356 0.07032191008329391 0.0574113093316555 0.10740510374307632 0.06261077523231506 0.11495901644229889 0.14794686436653137 0.11978404223918915 0.09996910393238068 -0.08072905242443085 0.051595136523246765 -0.10005155950784683 -0.15796220302581787 0.20476587116718292 0.05524003878235817 0.052456147968769073 -0.1425892859697342 -0.011891467496752739 -0.10100576281547546 -0.015453234314918518 0.16979974508285522 -0.15389582514762878 -0.1049528643488884 0.04032403230667114 -0.09111658483743668 0.12093117088079453 0.008348699659109116 -0.030051929876208305 0.14059410989284515 -0.05000877007842064 -0.05123557522892952 -0.023250026628375053 -0.185217946767807 -0.05978499725461006 -0.06447689980268478
0.1388811618089676 -0.03246746212244034 0.20479823648929596 0.16724291443824768 -0.1578226387500763 0.006411171052604914 0.0625593438744545 0.12489627301692963 -0.14585034549236298 0.02873782068490982 0.06037580221891403 0.06191509962081909 0.06119590997695923 -0.13293437659740448 -0.13407273590564728 0.03124750591814518 -0.025740306824445724 0.06537871062755585 -0.23211891949176788 -0.00879173818975687 -0.09823467582464218 0.13908520340919495 -0.01346446480602026 -0.06186768785119057 -0.12918800115585327 -0.0827011689543724 -0.04970194026827812 -0.05390724539756775 0.05445335432887077 0.07841090857982635 0.20012108981609344 0.13977977633476257 0.025228936225175858 0.14777159690856934 0.07908456772565842 0.0196206234395504 -0.03794138878583908 -0.18974322080612183 -0.08726049214601517 -0.03266824781894684 0.10058978199958801 0.006262607406824827
-0.12147831916809082 0.0655914843082428 0.14592838287353516 -0.01151938084512949 0.02216266095638275 -0.09028938412666321 0.09711210429668427 -0.014113098382949829 0.09100355952978134 -0.11736005544662476 0.06131666898727417 0.143628790974617 -0.015398380346596241 0.08147385716438293 0.12854543328285217 0.1367821842432022 -0.10459554940462112 -0.11921707540750504 0.0788746103644371 -0.003622642019763589 -0.1375690996646881 8.450925633951556e-06 0.04761762544512749 -0.026725096628069878 -0.03240806609392166 0.05270844325423241 -0.13266411423683167 -0.05744561925530434 -0.06533896178007126 0.0561460442841053 0.11361650377511978 0.057043880224227905 0.015128608793020248 -0.1056128516793251 -0.11873520165681839 0.01575976237654686 -0.02172570675611496 -0.06015263870358467 -0.1128581240773201 -0.05634481832385063 -0.07952848076820374 0.07600723206996918
-0.0013022356433793902 0.14244376122951508 0.052537743002176285 0.10109786689281464 -0.14064177870750427 -0.16622285544872284 -0.03957203030586243 0.18316084146499634 -0.025766363367438316 -0.04118611663579941 -0.00012256244372110814 0.17124594748020172 -0.09237296879291534 0.06765875965356827 -0.17069688439369202 -0.06673092395067215 -0.12126215547323227 -0.022467201575636864 0.1414283812046051 0.048372428864240646 -0.16352784633636475 0.08941181004047394 -0.1308843493461609 -0.09042656421661377 0.03846880421042442 -0.02934037521481514 -0.03710640221834183 -0.12985697388648987 -0.006192976608872414 0.18269093334674835 -0.07218693196773529 -0.02831706404685974 0.00790124200284481 -0.13348236680030823 -0.0008656467543914914 0.029017750173807144 0.04672829434275627 -0.04548611491918564 -0.018008269369602203 0.146692156791687 -0.047748710960149765 -0.03102535381913185
0.11517878621816635 0.23165221512317657 -0.08592495322227478 0.044488728046417236 0.034477364271879196 -0.1643224060535431 0.08198824524879456 0.04295050725340843 -0.1479797214269638 0.020694125443696976 0.12008476257324219 0.09632295370101929 0.01653752662241459 0.0727376714348793 -0.22657102346420288 0.17808301746845245 0.18671095371246338 -0.07985202223062515 0.028228146955370903 0.09055328369140625 0.04803171008825302 0.0684550330042839 -0.1375935971736908 0.14941424131393433 -0.0022892137058079243 0.031294893473386765 -0.17453119158744812 0.049241337925195694 -0.008196262642741203 -0.08758781850337982 0.011992971412837505 0.0058474186807870865 -0.06631994247436523 -0.05382740497589111 0.10026537626981735 0.14191509783267975 0.056814465671777725 -0.020605377852916718 -0.004908018745481968 -0.018414344638586044 -0.03963296115398407 0.1275259107351303
0.036138758063316345 -0.03855348378419876 0.08946440368890762 -0.07714147120714188 -0.0746929943561554 0.08583753556013107 0.09774693101644516 -0.13782255351543427 0.10319719463586807 -0.04587181657552719 0.24967347085475922 -0.14161354303359985 0.18271835148334503 0.290194571018219 0.08113963901996613 -0.1300237476825714 0.036680176854133606 -0.013653233647346497 0.005425914656370878 0.03558135777711868 0.051613230258226395 -0.11651886254549026 -0.0524442233145237 0.05074840411543846 -0.07474517077207565 0.04809523746371269 0.08693099021911621 -0.08085274696350098 -0.15702855587005615 -0.0028609216678887606 0.1191345602273941 0.10313790291547775 0.06410366296768188 0.07877922803163528 0.17860853672027588 0.08480557799339294 0.03686903417110443 0.006478174589574337 0.15311278402805328 -0.15696345269680023 -0.10293620824813843 -0.03574436530470848
-0.05488548055291176 -0.014430331066250801 -0.21813295781612396 -0.1426185965538025 0.0932077169418335 -0.15166348218917847 -0.16178736090660095 -0.12747132778167725 0.03376108035445213 -0.051467638462781906 0.08485668152570724 -0.16524434089660645 0.17070208489894867 -0.13749180734157562 0.2169213443994522 -0.13754452764987946 0.1527051329612732 -0.1229512020945549 -0.13364578783512115 0.01830163598060608 -0.17754672467708588 0.10706274956464767 -0.002861498622223735 -0.07350039482116699 -0.006565677933394909 -0.13280169665813446 0.007952742278575897 -0.010027710348367691 -0.08085204660892487 -0.13979710638523102 0.00730558019131422 0.07238905876874924 0.07333006709814072 0.06342117488384247 0.06680315732955933 0.09079951047897339 0.06037375330924988 0.17766349017620087 0.10523971915245056 0.14399248361587524 -0.04875445365905762 0.11197727918624878
0.11683101952075958 0.059725210070610046 0.25850895047187805 0.10709574073553085 0.10270451009273529 -0.15749871730804443 0.13234484195709229 0.21033160388469696 0.10469111055135727 -0.08035445213317871 0.1626293808221817 0.1287565380334854 -0.07569978386163712 -0.08853863924741745 -0.15909786522388458 0.17637000977993011 -0.021802792325615883 -0.1848893165588379 -0.26809945702552795 -0.09158133715391159 -0.08030321449041367 0.08463067561388016 -0.020227571949362755 0.15218257904052734 -0.137054443359375 -0.04005967825651169 -0.0817299336194992 0.08531371504068375 0.03201059252023697 -0.05445818230509758 -0.066709965467453 0.08151727169752121 0.013753766193985939 -0.025885822251439095 0.03291524574160576 -0.022426249459385872 -0.030896633863449097 0.010267413221299648 0.0008902515983209014 0.05597928538918495 -0.05586959794163704 0.03677862510085106
-0.0595257505774498 -0.16372103989124298 -0.12318756431341171 0.06228675693273544 0.0038889427669346333 0.010908837430179119 -0.11238227784633636 -0.1000562533736229 -0.2111925631761551 -0.0563189871609211 0.14684295654296875 0.15853074193000793 -0.12428241223096848 0.01665334962308407 -0.16814543306827545 0.2421303242444992 -0.014890453778207302 -0.12516112625598907 -0.12554006278514862 -0.1430482417345047 -0.07471781224012375 0.07521836459636688 0.038862988352775574 -0.04422140121459961 0.041782550513744354 -0.08885159343481064 -0.1395643651485443 0.09296870976686478 -0.051926497370004654 -0.014299577102065086 0.001268525025807321 0.12117541581392288 0.06199450418353081 0.12193179130554199 0.038987208157777786 -0.053690217435359955 0.11861950159072876 0.10776451975107193 -0.03296373784542084 -0.004595165140926838 0.0024560873862355947 -0.11812993139028549
-0.11655782908201218 -0.12090162187814713 -0.09099917113780975 0.011690138839185238 0.0709242969751358 -0.009974151849746704 0.01120905764400959 -0.21129509806632996 0.011012047529220581 -0.22665493190288544 -0.060644593089818954 -0.054635949432849884 -0.06958447396755219 -0.19810020923614502 -0.03578100726008415 0.07293916493654251 -0.1726927012205124 0.12568528950214386 0.14943067729473114 -0.043777089565992355 -0.05913896486163139 -0.21738016605377197 0.09873335063457489 -0.12394831329584122 -0.05755016207695007 -0.09791937470436096 -0.06823768466711044 0.0784195140004158 -0.07227066904306412 0.04431021958589554 -0.003938326612114906 -0.0226165559142828 -0.18062378466129303 0.09248102456331253 0.07521944493055344 0.09054560214281082 0.004461233038455248 -0.0934121385216713 -0.10590335726737976 0.00051986298058182 0.01710764691233635 -0.07178667187690735
-0.09562404453754425 0.14471004903316498 -0.1237320825457573 0.14787596464157104 -0.049668267369270325 0.00123131787404418 0.055760566145181656 -0.01637907326221466 0.06212684139609337 0.09276755154132843 0.07838702946901321 0.16903166472911835 -0.0006772159831598401 -0.21917730569839478 0.1373637318611145 -0.05404960364103317 -0.022992834448814392 0.07663524150848389 -0.20031796395778656 -0.03735031187534332 -0.009388870559632778 0.01687082089483738 -0.05485288426280022 -0.0007557369535788894 -0.08886050432920456 -0.13589118421077728 -0.12332196533679962 -0.1062777191400528 0.05916794762015343 0.08914339542388916 -0.001010278007015586 0.07227324694395065 -0.0724402591586113 0.10307883471250534 0.11800704896450043 0.04968274384737015 -0.02559489943087101 -0.0847194567322731 -0.08964303135871887 0.08700868487358093 -0.06949088722467422 0.029211552813649178
-0.21115198731422424 -0.09635920077562332 -0.18296533823013306 0.07684249430894852 0.06784123182296753 -0.10533851385116577 0.006817016284912825 0.16581040620803833 -0.10605806857347488 0.006884565576910973 -0.19279131293296814 0.16043539345264435 -0.14594031870365143 0.1746242344379425 0.09786686301231384 -0.0822228267788887 -0.11050859838724136 -0.21595200896263123 0.2189583033323288 -0.22113704681396484 -0.024872729554772377 0.006905466318130493 -0.019029809162020683 0.05082395300269127 0.03300496190786362 0.18749183416366577 -0.028996337205171585 0.015062239021062851 -0.07723180949687958 0.047460973262786865 0.03947436064481735 -0.04323950782418251 -0.0892227366566658 0.05177648738026619 0.09171333909034729 -0.1080838143825531 0.09487554430961609 -0.015075311064720154 0.06399805098772049 -0.023779146373271942 0.03918955847620964 0.07726961374282837
0.2643471956253052 0.19482524693012238 0.273287832736969 0.134955033659935 -0.05744296684861183 -0.10679301619529724 0.10281752049922943 0.010117493569850922 -0.0734923779964447 -0.014981412328779697 0.14528968930244446 0.09932593256235123 -0.052461177110672 -0.19760437309741974 0.228780597448349 0.09068766236305237 -0.11736254394054413 -0.12417995929718018 -0.011779365129768848 0.0019304039888083935 -0.010394454933702946 -0.05620294436812401 -0.18081176280975342 -0.0777897909283638 -0.02521308697760105 0.030255194753408432 0.0589107982814312 0.03904910758137703 -0.04638391733169556 0.11086013913154602 -0.06668271869421005 0.0005114739760756493 0.10498480498790741 0.0036329093854874372 0.06812600791454315 0.016984418034553528 0.05115160346031189 0.0020130397751927376 0.035627711564302444 -0.05690135806798935 0.04779655486345291 0.09249799698591232
0.18767642974853516 0.10543522983789444 -0.021179063245654106 -0.15273933112621307 -0.08010885864496231 0.07387132197618484 -0.04696545749902725 -0.19172409176826477 -0.06522626429796219 0.07280471175909042 -0.06383813917636871 0.03595681115984917 -0.08747522532939911 -0.11383029818534851 -0.2794870436191559 0.24280568957328796 0.13291610777378082 -0.07756190001964569 -0.14734533429145813 0.04378852620720863 -0.06289549916982651 -0.12925566732883453 -0.11331041902303696 -0.10866668820381165 -0.0817599967122078 0.16661326587200165 0.018987949937582016 -0.036210086196660995 0.03270447626709938 -0.079657182097435 -0.027404554188251495 -0.046876389533281326 -0.062163401395082474 0.1210947260260582 -0.01554262638092041 -0.003806121414527297 -0.029093675315380096 0.004936776589602232 -0.04397504776716232 0.028865402564406395 0.0337710902094841 0.022923830896615982
-0.14587171375751495 -0.09953156113624573 -0.1427772343158722 0.11304883658885956 0.22579796612262726 0.02576400525867939 0.11268749088048935 -0.1325571984052658 0.029766947031021118 0.19906210899353027 0.15424098074436188 -0.06958309561014175 0.2202504277229309 0.20784784853458405 -0.026191679760813713 -0.04880277439951897 0.08587321639060974 0.17344121634960175 -0.011388749815523624 0.15134619176387787 -0.08233882486820221 -0.052215248346328735 0.03689621388912201 0.13260367512702942 0.097210593521595 -0.029194176197052002 -0.006810933817178011 0.028085585683584213 -0.07488363981246948 -0.07848842442035675 0.06794653087854385 -0.08963693678379059 0.09429353475570679 -0.1034986600279808 0.05060260370373726 -0.09850215911865234 -0.10547639429569244 0.009833716787397861 0.11668475717306137 -0.12203031778335571 -0.10540828108787537 -0.023330800235271454
0.21431829035282135 -0.005745545029640198 0.15838408470153809 0.2571299374103546 -0.053664419800043106 -0.07386161386966705 0.1903577595949173 0.24782778322696686 -0.07764691114425659 -0.051184870302677155 0.015052461065351963 0.13859626650810242 -0.2889764904975891 0.011007255874574184 0.1410790979862213 -0.024278925731778145 -0.03459008038043976 -0.092760369181633 0.15752559900283813 0.22407075762748718 0.07561568170785904 -0.07601696252822876 0.11156617105007172 0.08161908388137817 0.2474672496318817 -0.09384377300739288 -0.05556650087237358 -0.06480521708726883 0.074718177318573 0.04656042158603668 -0.038689203560352325 0.02681749500334263 0.0013957730261608958 -0.028873471543192863 -0.029298122972249985 -0.0028315111994743347 0.005087986122816801 -0.015886707231402397 -0.012231942266225815 0.025643417611718178 0.05703755468130112 0.020023023709654808
0.24782949686050415 0.12560021877288818 0.23605282604694366 0.17097559571266174 -0.07593589276075363 0.094535693526268 0.21606099605560303 0.19584207236766815 0.03290574625134468 -0.17745660245418549 0.02968047745525837 0.09467031061649323 -0.14378443360328674 0.11627239733934402 -0.0819065198302269 0.1850874423980713 0.15481111407279968 -0.10941648483276367 -0.18786466121673584 0.009277347475290298 0.0051431721076369286 0.12620413303375244 -0.1723642200231552 0.10442055761814117 0.01060711033642292 0.10775434225797653 -0.03378424420952797 0.11893682926893234 -0.09841005504131317 -0.002649028319865465 -0.021272266283631325 -0.04481802135705948 0.06059575080871582 -0.11195945739746094 0.07906609028577805 -0.0468873456120491 -0.030719315633177757 0.11116071045398712 0.051619913429021835 -0.033655792474746704 -0.1030634418129921 0.03926796838641167
0.03506305441260338 0.06967517733573914 0.11066033691167831 0.1646827906370163 -0.0348111093044281 0.1461341232061386 0.12144303321838379 -0.0022355341352522373 0.07973768562078476 0.008962107822299004 -0.05658584460616112 -0.09718026220798492 0.04527455195784569 0.11108753085136414 -0.08452019095420837 -0.25155410170555115 -0.2435416579246521 0.12835684418678284 -0.1275208443403244 0.11232536286115646 -0.2570294737815857 0.11046218127012253 0.09722834080457687 0.11424422264099121 -0.21918298304080963 0.020700661465525627 0.08640784025192261 0.20419706404209137 0.10841823369264603 0.19294846057891846 -0.02635202556848526 -0.016751600429415703 -0.11746638268232346 -0.043258585035800934 -0.04559137672185898 0.1483776718378067 0.1080918088555336 -0.12942169606685638 0.006966860499233007 -0.11912122368812561 -0.03775085508823395 0.11134742945432663
-0.08409729599952698 0.09392011165618896 -0.1822027564048767 -0.08051551133394241 0.008949024602770805 0.05298325791954994 -0.1697881817817688 0.1465798318386078 -0.025174414739012718 -0.06972553580999374 0.13459719717502594 0.1627005785703659 -0.007519549690186977 -0.17173707485198975 0.00977784488350153 -0.08412521332502365 0.06963866204023361 0.1558101922273636 -0.09554218500852585 -0.20357905328273773 -0.03958249092102051 0.027857664972543716 -0.02324308268725872 0.13187208771705627 -0.16582022607326508 0.1042044460773468 -0.10343118011951447 0.06264267861843109 -0.1697993278503418 0.05250224471092224 -0.06106654554605484 0.059224870055913925 0.08733513206243515 -0.17343765497207642 0.12925304472446442 -0.04653521627187729 -0.004260367248207331 0.04324355721473694 0.010475407354533672 0.08069217205047607 0.03885214775800705 0.07123560458421707
0.06843465566635132 -0.034485917538404465 -0.07208400219678879 -0.0936368927359581 -0.06049370765686035 -0.15706250071525574 0.099586620926857 0.2126200944185257 -0.09802115708589554 0.0316513255238533 0.16477808356285095 0.22454951703548431 -0.0567595437169075 0.15421032905578613 0.06152714416384697 0.2820444703102112 0.09105291962623596 -0.1273621767759323 -0.19854417443275452 -0.1400865763425827 -0.2513482868671417 0.0879601463675499 0.04886217042803764 -0.001203269581310451 0.023455988615751266 -0.06823576241731644 -0.11137974262237549 -0.02901465632021427 0.09249997138977051 -0.09790023416280746 0.04330197721719742 0.026840440928936005 0.08149588853120804 0.04196098819375038 -0.009333630092442036 0.0342506542801857 0.055726274847984314 0.06546486169099808 0.07426697760820389 0.006671431008726358 0.03919260948896408 -0.057506803423166275
0.25090089440345764 0.05842220038175583 0.25130853056907654 -0.0174337737262249 -0.029753677546977997 -0.05400802195072174 0.16397573053836823 0.12447348982095718 -0.026323877274990082 0.09952593594789505 0.12337402254343033 0.24337920546531677 -0.09236572682857513 -0.21778693795204163 0.2865709066390991 0.03957772254943848 0.08847518265247345 -0.00737033411860466 -0.0607948899269104 0.14658591151237488 -0.04022838547825813 0.17410209774971008 -0.08461299538612366 -0.07401258498430252 0.10798323154449463 0.05269745737314224 -0.09611700475215912 0.04152010753750801 -0.14784307777881622 0.04447581246495247 0.1304587721824646 0.09469778835773468 0.14085286855697632 -0.029225392267107964 -0.04191698506474495 0.05634268745779991 0.005090668797492981 0.10326072573661804 0.08655714243650436 0.05638475716114044 0.11939866840839386 0.06494564563035965
-0.1501086801290512 0.13040423393249512 -0.010414754040539265 -0.051936786621809006 -0.019174382090568542 -0.03264819085597992 0.00024193385615944862 -0.07032005488872528 -0.23804974555969238 -0.018883049488067627 -0.12027007341384888 0.15751145780086517 -0.15788887441158295 0.030922843143343925 0.013846620917320251 0.14545229077339172 0.18921293318271637 0.24134205281734467 -0.10718808323144913 0.017735863104462624 -0.2310589700937271 -0.040303848683834076 0.1549241840839386 0.05344753339886665 0.0341092050075531 -0.19145841896533966 -0.11357826739549637 0.10235829651355743 0.13016033172607422 -0.061844635754823685 0.02047482505440712 0.10022260993719101 -0.14602984488010406 0.14907525479793549 0.04438907280564308 0.12289229780435562 -0.024645071476697922 0.09055503457784653 0.07065645605325699 -0.001926035969518125 -0.13804438710212708 0.03452204912900925
-0.11798624694347382 0.22434605658054352 0.10918086022138596 0.19097919762134552 0.07647953182458878 0.13207398355007172 -0.13046084344387054 0.16001681983470917 -0.20520424842834473 -0.035003986209630966 0.14578990638256073 -0.012828726321458817 -0.16718101501464844 -0.09990259259939194 -0.023259222507476807 0.008189509622752666 0.12402103841304779 -0.14098986983299255 -0.2559240460395813 0.012826964259147644 0.1762791872024536 -0.0307783093303442 0.07609336078166962 -0.00425476161763072 -0.02870875783264637 0.00964471884071827 0.06255488097667694 0.04471227899193764 0.042693931609392166 0.12606938183307648 -0.10725916177034378 -0.07077067345380783 0.0009160431218333542 -0.0706908255815506 0.018953977152705193 -0.07575905323028564 -0.04933944717049599 0.0032842003274708986 -0.05504046007990837 0.022443724796175957 0.04676789790391922 -0.09095722436904907
-0.10827989131212234 -0.005303004290908575 -0.13971567153930664 0.0919189304113388 0.19906075298786163 -0.019969698041677475 0.1401631385087967 0.12832467257976532 0.11672520637512207 0.17992760241031647 -0.15982502698898315 0.0203450545668602 -0.02938656322658062 0.24806231260299683 -0.026453714817762375 -0.07689660042524338 -0.2424110770225525 -0.0014830897562205791 0.10101626068353653 0.0676596388220787 -0.0055962796323001385 -0.1005028784275055 0.057051826268434525 0.030565474182367325 -0.06087552383542061 0.12807202339172363 0.10760480165481567 0.08277372270822525 0.0855124369263649 0.01502931397408247 0.043242163956165314 -0.0029434128664433956 -0.17875167727470398 -0.07081981003284454 0.1298917680978775 0.13316164910793304 0.18199890851974487 0.13637202978134155 -0.15148304402828217 -0.11441987752914429 0.10911347717046738 0.03924589976668358
0.137871652841568 -0.0316225066781044 0.12779466807842255 0.09896301478147507 -0.06973929703235626 0.06119171157479286 -0.02730933576822281 -0.0087351119145751 0.2385314553976059 0.0691840648651123 -0.0013272378128021955 -0.08799613267183304 0.18109993636608124 0.22527733445167542 -0.03937995806336403 0.018461938947439194 -0.11911576241254807 0.08856897801160812 0.02250412292778492 -0.014937327243387699 0.1294356733560562 -0.017758449539542198 -0.01402498409152031 0.1563638150691986 -0.16297172009944916 0.010060076601803303 0.01004538033157587 0.11923009902238846 0.12659130990505219 0.09972159564495087 0.13808664679527283 0.020722869783639908 -0.09750916808843613 0.05258474871516228 -0.08486615121364594 0.02657371200621128 0.07027234137058258 -0.004778554663062096 0.07963785529136658 0.17310789227485657 -0.1134231761097908 0.062181081622838974
-0.10290037840604782 -0.009910918772220612 0.0922546461224556 0.026801874861121178 -0.0036017613019794226 -0.06283392012119293 0.04875181242823601 -0.1913008689880371 0.03855777904391289 -0.00523878401145339 -0.06621313095092773 0.05603964254260063 -0.14633169770240784 -0.15837939083576202 -0.15651603043079376 0.22976000607013702 -0.15260493755340576 0.04791853949427605 -0.07287336140871048 -0.19532455503940582 0.003922032192349434 -0.06769018620252609 -0.11783343553543091 0.19583970308303833 0.0740971714258194 0.0760919600725174 0.09996017813682556 -0.027631785720586777 0.06290744990110397 0.1023888885974884 -0.12719088792800903 -0.07018439471721649 0.0324934720993042 0.06655828654766083 -0.08349443972110748 0.1556999534368515 0.0629553496837616 -0.1159447729587555 0.18431317806243896 -0.06882575899362564 -0.09960971772670746 0.1095440536737442
0.03983514755964279 0.07958882302045822 0.12756142020225525 -0.04493126645684242 0.1202855110168457 0.06579361110925674 -0.0606263130903244 0.1029411181807518 0.2070355862379074 0.2003268003463745 0.09615715593099594 -0.08949320018291473 0.18591196835041046 0.13186298310756683 -0.05403991416096687 0.02738320268690586 0.031029200181365013 -0.08168625831604004 -0.04365556314587593 -0.04347800090909004 0.1144513338804245 0.10643526166677475 0.07250822335481644 -0.044521912932395935 0.0486164316534996 -0.03950183466076851 -0.0034095447044819593 -0.026881011202931404 -0.008023322559893131 0.028470627963542938 0.12827636301517487 -0.11563778668642044 0.07628988474607468 0.00448237219825387 -0.08317876607179642 -0.03301212936639786 0.03505346551537514 -0.07255356758832932 0.03641550987958908 0.06992219388484955 0.04933864250779152 0.06583933532238007
-0.05240561440587044 -0.16292697191238403 -0.13551339507102966 -0.20484670996665955 -0.08531781286001205 -0.11646339297294617 -0.18178308010101318 -0.2648254930973053 0.09251183271408081 -0.2263530194759369 -0.16115131974220276 -0.06268826127052307 0.0711321160197258 -0.27427712082862854 -0.13840003311634064 0.017424611374735832 -0.28295451402664185 -0.016835037618875504 0.16965770721435547 -0.033904314041137695 0.02358705922961235 -0.13614700734615326 -0.0873764306306839 0.0013141221133992076 0.07769229263067245 0.14525003731250763 0.11368326842784882 0.0019329459173604846 0.06873388588428497 -0.07246199250221252 -0.11862801760435104 -0.21512924134731293 -0.04829653725028038 0.00839285273104906 0.010908477008342743 0.14832918345928192 -0.006026327610015869 -0.03986340016126633 0.05608614161610603 0.12191128730773926 -0.03875800222158432 -0.019330285489559174
0.16856178641319275 -0.1683550775051117 0.18704082071781158 -0.022482188418507576 -0.0460670031607151 0.036552999168634415 0.09806516766548157 -0.14198815822601318 0.030031606554985046 0.06105904281139374 -0.21711768209934235 -0.012971089221537113 -0.21033219993114471 -0.029303357005119324 -0.15275323390960693 0.24573414027690887 0.0729239284992218 -0.0453985296189785 0.04562823846936226 -0.06286647170782089 -0.18200378119945526 0.042462628334760666 -0.14093992114067078 -0.05271519348025322 -0.04705045744776726 -0.06548649817705154 0.05257140472531319 0.007118782494217157 0.03550409898161888 -0.1673477739095688 0.11273681372404099 -0.05943327769637108 -0.12211321294307709 -0.09055131673812866 0.0881110206246376 0.07803024351596832 -0.052091699093580246 -0.041484806686639786 -0.0034857760183513165 -0.02538004145026207 -0.10536880791187286 -0.09124744683504105
0.05613643303513527 -0.013714497908949852 0.025662453845143318 -0.09226877987384796 0.0002070160408038646 0.11261709034442902 0.05196615308523178 0.06592345982789993 -0.09787620604038239 -0.10326115041971207 -0.00663447380065918 -0.05176987871527672 -0.2073126882314682 -0.02160673402249813 0.009285210631787777 0.19389165937900543 -0.08279504626989365 -0.15299531817436218 0.07415394484996796 -0.15042707324028015 -0.056235797703266144 -0.1547827422618866 -0.14826653897762299 -0.08566080033779144 0.14451511204242706 -0.009859557263553143 0.05785922706127167 0.06760900467634201 -0.010564089752733707 -0.04227355122566223 0.02461480349302292 -0.009754979982972145 -0.0862838551402092 0.01031907182186842 -0.133854940533638 0.0594174861907959 0.07199954986572266 0.15599848330020905 0.04579242318868637 0.04099467024207115 -0.011172131635248661 0.0532822422683239
0.10159248858690262 -0.027152089402079582 -0.07439860701560974 -0.186094269156456 0.21063415706157684 0.07611728459596634 -0.05394556000828743 -0.21847963333129883 -0.10678153485059738 -0.16865895688533783 -0.1476757824420929 0.06332118064165115 -0.1385977566242218 -0.236738383769989 -0.08937917649745941 0.13530196249485016 -0.05056651681661606 0.18948711454868317 0.11009860783815384 -0.027937157079577446 0.0062333024106919765 -0.18655619025230408 0.06271014362573624 -0.08623693883419037 -0.02991000935435295 0.11418162286281586 -0.060787901282310486 0.09316386282444 0.1417967677116394 0.01871025748550892 0.03372379392385483 -0.08805786073207855 0.05448300391435623 -0.05782990902662277 -0.019487690180540085 -0.08886994421482086 0.08591151237487793 -0.08097876608371735 -0.01226063072681427 0.010847292840480804 -0.05268862470984459 0.08841909468173981
-0.02549206092953682 0.0549456849694252 -0.13884668052196503 -0.09457862377166748 0.163323312997818 -0.03326232358813286 -0.08170481771230698 0.06606411933898926 0.03768647834658623 0.11379414796829224 0.09560378640890121 0.029323311522603035 0.17341963946819305 0.18936589360237122 0.12167960405349731 0.21365392208099365 -0.12541282176971436 -0.14233183860778809 0.04020396247506142 0.1353124976158142 0.2089148610830307 0.15591874718666077 0.12083622068166733 0.045381996780633926 0.031542614102363586 0.05195336043834686 -0.05446348711848259 -0.08428023010492325 0.21071496605873108 -0.09475360065698624 -0.10619375109672546 -0.019018203020095825 0.013656475581228733 -0.03245364502072334 -0.09759051352739334 -0.0023402636870741844 0.1171308159828186 0.03802084922790527 0.11523601412773132 -0.029131358489394188 -0.1081145778298378 -0.058174122124910355
0.08730258047580719 -0.07706532627344131 -0.19855669140815735 0.19675393402576447 0.05270992964506149 0.13465024530887604 0.07834828644990921 0.07784982770681381 0.1612791270017624 0.0739341676235199 -0.13570313155651093 -0.051137324422597885 -0.06802361458539963 0.050322823226451874 0.08677279949188232 -0.16106340289115906 -0.1415960192680359 0.06606673449277878 0.06139375641942024 0.1425478458404541 -0.08538784831762314 -0.05658572539687157 0.0834842324256897 -0.043609075248241425 -0.007779695559293032 0.032073646783828735 -0.05185161530971527 -0.005548268090933561 0.16876958310604095 -0.07623342424631119 0.12374796718358994 -0.08341343700885773 -0.17694741487503052 -0.10554906725883484 0.14640963077545166 -0.04982682317495346 -0.1473991572856903 -0.110977403819561 0.1454102247953415 0.03584405034780502 0.03845667093992233 0.13325221836566925
-0.14501331746578217 0.10795729607343674 0.05638784542679787 0.0773070901632309 -0.07403138279914856 -0.05596429482102394 -0.05851864814758301 0.1615479290485382 0.10640977323055267 0.16641421616077423 -0.1659156233072281 0.019967136904597282 0.05791620910167694 0.039651744067668915 -0.04800421744585037 -0.09747765213251114 -0.25652047991752625 0.07293692976236343 -0.02660609968006611 0.012261469848453999 -0.11922453343868256 0.2585011422634125 0.15914809703826904 -0.013415384106338024 -0.001158029306679964 0.1258993297815323 -0.14241142570972443 -0.06838669627904892 -0.1581527441740036 0.15041491389274597 0.15551447868347168 0.004501409363001585 -0.03920011967420578 -0.019719507545232773 0.033850423991680145 -0.1681547909975052 0.0010035269660875201 0.060116227716207504 -0.023592740297317505 -0.15162093937397003 0.04609406366944313 -0.15713565051555634
0.14523763954639435 0.072748564183712 0.05976045876741409 -0.05664745345711708 0.03993205726146698 0.08553668111562729 -0.0888446494936943 0.0029102631378918886 -0.22208398580551147 -0.04494791105389595 -0.12654469907283783 -0.042312487959861755 -0.19883956015110016 -0.1832895427942276 -0.08684444427490234 0.055443234741687775 -0.09139497578144073 -0.09767471253871918 -0.017829500138759613 -0.11432074010372162 0.221723735332489 -0.17916817963123322 -0.05420888960361481 0.12382374703884125 0.036645203828811646 -0.0840679332613945 -0.06333285570144653 0.21698923408985138 0.08879473805427551 0.11133365333080292 0.07100728154182434 -0.09747877717018127 0.06363628059625626 0.04781005159020424 -0.07014652341604233 0.08234788477420807 0.06064479798078537 -0.056280773133039474 0.17860212922096252 -0.055494461208581924 0.019513027742505074 0.153581902384758
-0.016241122037172318 -0.07657735049724579 -0.10220204293727875 0.03437865898013115 -0.006359562277793884 0.053813621401786804 0.010013025254011154 -0.023951061069965363 0.02994178608059883 0.05802958831191063 0.16818355023860931 -0.26351261138916016 0.066310353577137 0.18468517065048218 0.161117285490036 -0.18093426525592804 -0.011420284397900105 -0.13924306631088257 -0.18085353076457977 0.000578667561057955 -0.18961377441883087 -0.17841079831123352 -0.023028263822197914 0.006068835034966469 0.10508639365434647 0.18615834414958954 -0.08516993373632431 -0.04136847332119942 -0.03183543309569359 -0.047047778964042664 -0.0248467605561018 -0.1268121600151062 0.12329691648483276 0.04212769493460655 0.057596057653427124 0.027941180393099785 -0.01546852383762598 -0.12149585038423538 -0.0328969843685627 0.016457147896289825 0.10473775118589401 -0.15932981669902802
-0.18938887119293213 -0.04467383772134781 -0.24009685218334198 0.07109302282333374 -0.012822967022657394 0.018908493220806122 -0.1917848140001297 -0.15074996650218964 0.08210217207670212 0.08652202785015106 0.05045253410935402 -0.11397825926542282 -0.09996294975280762 -0.1929835081100464 -0.2300635725259781 0.29409682750701904 -0.18954797089099884 0.17529170215129852 -0.034778106957674026 -0.0652681514620781 0.0014633750542998314 -0.1317249983549118 -0.031041163951158524 0.127688929438591 0.0864507183432579 -0.08873510360717773 0.014199518598616123 0.008118343539536 -0.07347086817026138 0.047247759997844696 -0.006731389090418816 -0.0655587837100029 -0.04289025813341141 0.002862903056666255 -0.0978531539440155 0.015992535278201103 -0.007774663623422384 0.08400365710258484 0.07163619995117188 0.02112390846014023 0.024317724630236626 0.05432380363345146
0.2434331178665161 0.028989998623728752 0.24514369666576385 -0.17501072585582733 0.19505029916763306 -0.02935941517353058 0.1463557481765747 -0.14244696497917175 -0.11604036390781403 0.009373344480991364 -0.12631666660308838 -0.04384937137365341 -0.1076650619506836 -0.14507611095905304 -0.29217714071273804 0.04862736910581589 -0.10304282605648041 0.026500701904296875 -0.07832273840904236 -0.23004980385303497 -0.10217388719320297 -0.17789673805236816 0.15486441552639008 0.007169813849031925 0.13759814202785492 0.07122202217578888 -0.006305001210421324 -0.04485169053077698 -0.03171828016638756 -0.027238531038165092 0.05693783611059189 -0.03659049794077873 0.007903548888862133 0.02688850648701191 -0.00561014236882329 0.012013103812932968 -0.000592061027418822 -0.01875440776348114 -0.007280267309397459 -0.017426032572984695 0.00032450424623675644 0.004900146741420031
0.14420558512210846 -0.09063239395618439 -0.04532959684729576 -0.12948596477508545 0.15260431170463562 -0.1051553413271904 -0.13936595618724823 -0.16847899556159973 -0.04087090492248535 0.08870622515678406 -0.0681910440325737 0.0783403068780899 -0.19389258325099945 -0.028375938534736633 -0.2674563527107239 0.26689258217811584 0.2006412148475647 -0.033048294484615326 -0.1817827820777893 -0.2185957282781601 -0.14124110341072083 0.11157003045082092 -0.11610502004623413 0.10832645744085312 -0.13196103274822235 0.0031791243236511946 -0.023467659950256348 -0.10234322398900986 -0.013233574107289314 -0.07038357108831406 -0.06288010627031326 -0.05887177214026451 0.09881023317575455 0.13532301783561707 0.05063080042600632 0.028879063203930855 -0.012004359625279903 -0.0568636879324913 0.10547154396772385 0.034805651754140854 -0.04454873502254486 0.08182475715875626
-0.1700662523508072 0.034341294318437576 -0.1684769243001938 0.08532977849245071 -0.07173869758844376 0.06316807121038437 -0.002961354097351432 0.1066313311457634 -0.16129815578460693 0.12216342240571976 0.21963125467300415 0.009816450998187065 -0.19006997346878052 -0.09370332956314087 -0.026622282341122627 0.11775762587785721 0.19212967157363892 -0.11189545691013336 -0.019296852871775627 0.11042220145463943 -0.024406516924500465 0.11004886776208878 -0.03667249158024788 -0.0002465059224050492 -0.0005476123769767582 -0.0273547675460577 -0.047065913677215576 0.1277027428150177 0.04037480428814888 0.010880706831812859 0.10564224421977997 -0.01617414318025112 -0.009861237369477749 0.0778152346611023 0.1663341522216797 -0.0014200136065483093 0.05243778973817825 -0.026132872328162193 -0.10176438838243484 0.005855618976056576 0.06611527502536774 -0.07938464730978012
-0.029993122443556786 -0.0040247803553938866 -0.08569979667663574 0.01925608702003956 0.14796973764896393 0.09902819991111755 0.046743690967559814 -0.03359946608543396 -0.16194356977939606 -0.188123881816864 -0.13641402125358582 0.03474744036793709 -0.12069035321474075 -0.19012275338172913 -0.017424093559384346 0.15032170712947845 0.03668179735541344 0.09041834622621536 -0.048532694578170776 0.00462352205067873 0.016412900760769844 -0.17429909110069275 0.12176233530044556 -0.06314628571271896 0.03467021510004997 -0.0835094302892685 0.10034243762493134 -0.004775309935212135 -0.024528393521904945 -0.08652396500110626 -0.005759015213698149 0.024190234020352364 0.15637598931789398 0.01771939918398857 0.02382967248558998 0.1163967177271843 -0.10157901793718338 0.13396362960338593 0.034539829939603806 -0.007262547500431538 -0.12120446562767029 0.13044078648090363
0.02295071817934513 0.04556385800242424 0.02511773630976677 0.12708811461925507 0.1669466495513916 0.14537768065929413 -0.0668211355805397 -0.09219454228878021 -0.1160852313041687 0.16328345239162445 -0.06881952285766602 0.12338586896657944 0.18152154982089996 0.05246369168162346 -0.0285663940012455 -0.09764755517244339 0.11677283048629761 -0.11507491022348404 -0.0662216991186142 0.08034069836139679 -0.01789313182234764 0.02961217798292637 0.1796361356973648 -0.09546200931072235 -0.0333523266017437 -0.011669912375509739 -0.11551736295223236 0.20733967423439026 0.13222478330135345 0.05981301888823509 0.025094110518693924 0.08151353150606155 -0.0040695564821362495 0.027737904340028763 -0.11631850153207779 0.020435726270079613 0.1476818174123764 -0.028531838208436966 0.07804135978221893 -0.08829604089260101 0.02993174083530903 -0.14715860784053802
-0.048292793333530426 0.07898563891649246 -0.01434473879635334 -0.07663548737764359 0.18813449144363403 -0.0811249390244484 -0.208857923746109 0.20413227379322052 -0.05241251364350319 -0.06505035609006882 -0.037277523428201675 0.21241380274295807 -0.07357686758041382 -0.22086092829704285 0.23154257237911224 -0.19810566306114197 0.3274804949760437 0.16404680907726288 0.044455159455537796 -0.04295595362782478 0.034829914569854736 -0.04642493650317192 -0.052527494728565216 -0.12389333546161652 -0.2828001379966736 0.2346581220626831 -0.044029343873262405 -0.0040884255431592464 -0.06640716642141342 0.054898351430892944 0.02771606296300888 0.05771438032388687 -0.0024799180682748556 -0.043635979294776917 0.03459355980157852 0.06326503306627274 0.07005001604557037 0.00276985508389771 0.03288867324590683 -0.03159892186522484 -0.08716269582509995 -0.0030768567230552435
-0.14332261681556702 -0.03902639448642731 0.004575480241328478 0.058403078466653824 0.12427671253681183 0.0403476357460022 0.12343954294919968 0.08601490408182144 0.13565239310264587 0.11284361779689789 -0.06852611154317856 -0.12076838314533234 -0.04742845892906189 -0.13178730010986328 -0.015087379142642021 0.07258336991071701 0.0658579096198082 -0.06401968002319336 -0.06450024992227554 -0.008142242208123207 -0.07584181427955627 -0.12498418241739273 0.09063145518302917 0.014428368769586086 0.17682035267353058 0.04593989625573158 -0.05879729613661766 0.0039914813823997974 0.04896612837910652 0.004886697046458721 0.04930710047483444 -0.037520233541727066 0.15178854763507843 -0.026206007227301598 -0.012711238116025925 0.08559206873178482 0.04463034123182297 -0.139473557472229 -0.0005619256407953799 -0.13934935629367828 -0.14428594708442688 0.0020849816501140594
0.12789815664291382 0.12926365435123444 0.12425145506858826 -0.09101970493793488 0.14230948686599731 0.09348583221435547 0.062286488711833954 0.0747004970908165 -0.11071126163005829 -0.06065325811505318 -0.056293874979019165 -0.044580984860658646 -0.15023499727249146 -0.2178298830986023 -0.06373816728591919 0.12062282115221024 -0.02163286879658699 0.007451060693711042 0.04535305127501488 -0.07623175531625748 -0.1036907508969307 -0.21340420842170715 0.11519340425729752 -0.03311930596828461 -0.15911909937858582 0.013699227012693882 0.04216727241873741 0.12414559721946716 -0.10553041100502014 -0.12021824717521667 -0.04114838317036629 0.15060856938362122 -0.03645490109920502 -0.02066538855433464 0.0010170342866331339 -0.11195754259824753 0.05232969671487808 0.1204136461019516 -0.04220031574368477 -0.016374817118048668 -0.018425265327095985 0.14866052567958832
0.20165060460567474 0.15568630397319794 0.15268202126026154 -0.038040641695261 -0.09594818949699402 -0.01936517469584942 0.04681308567523956 0.18330614268779755 -0.04249795153737068 -0.15861688554286957 0.07084290683269501 0.17638759315013885 -0.14183849096298218 0.016544172540307045 -0.11022166162729263 -0.03488235920667648 0.14460185170173645 0.036073409020900726 -0.06612914800643921 0.05246364325284958 0.18207122385501862 -0.053020723164081573 0.019929567351937294 0.007804602384567261 -0.08704400807619095 0.08437470346689224 -0.13545475900173187 -0.14753958582878113 -0.05219652131199837 0.17092111706733704 0.11096913367509842 -0.049658872187137604 0.1219659373164177 0.1937956064939499 0.2473761886358261 -0.08882278949022293 -0.000411717890528962 -0.2036077082157135 -0.09018541872501373 -0.027695663273334503 0.019923260435461998 0.02699301391839981
0.1072106584906578 -0.04611621052026749 -0.05092345178127289 0.1931191235780716 -0.028917275369167328 0.08699196577072144 -0.11055488884449005 0.0022309632040560246 -0.06016531586647034 0.06164811924099922 -0.12081722915172577 -0.09291688352823257 -0.03236151486635208 0.040734805166721344 -0.007653179112821817 0.023010125383734703 -0.08703696727752686 0.001836444833315909 0.12895524501800537 0.06524374336004257 -0.1287984400987625 -0.05062396824359894 0.07073196768760681 -0.0506882518529892 0.12130173295736313 0.12211315333843231 0.12809905409812927 0.045406196266412735 0.1426411122083664 -0.14272145926952362 0.1304863542318344 -0.053273316472768784 0.16573432087898254 -0.11982160061597824 0.08572099357843399 -0.012021278962492943 0.04131592437624931 0.10255904495716095 -0.09616781771183014 0.15770293772220612 0.07372912764549255 0.06100708246231079
0.046577371656894684 0.10667051374912262 -0.004249839577823877 0.04688291624188423 0.1492912322282791 0.15089331567287445 -0.014085426926612854 -0.053456779569387436 0.105736643075943 0.17655104398727417 -0.12258505076169968 -0.13580384850502014 0.1416686624288559 0.23195895552635193 -0.017669424414634705 -0.1377602219581604 0.0097102215513587 -0.048354268074035645 -0.02599656768143177 -0.128962904214859 -0.08080169558525085 0.09899461269378662 0.11904045194387436 0.13109539449214935 0.06947154551744461 0.13825975358486176 -0.048003606498241425 -0.1079978346824646 -0.03062622994184494 0.044025249779224396 -0.14163732528686523 0.0701245591044426 -0.07250770926475525 0.006819133181124926 -0.09745694696903229 -0.075589120388031 -0.00734687689691782 -0.051280777901411057 -0.1465231031179428 -0.11819017678499222 0.08739212155342102 0.12583458423614502
0.02748800627887249 -0.015045122243463993 -0.11454267054796219 0.007364426739513874 0.07399237155914307 0.0367291234433651 -0.06670846045017242 -0.16335712373256683 0.04104606434702873 -0.1439051330089569 0.0909709483385086 -0.041905537247657776 0.005973823834210634 -0.29137223958969116 -0.0829458087682724 -0.11837349832057953 -0.1820300966501236 0.06461682915687561 -0.044234439730644226 0.13327237963676453 0.26671653985977173 -0.2152770608663559 0.06501587480306625 0.09419982135295868 -0.050276339054107666 -0.024317128583788872 -0.027425076812505722 0.021149365231394768 0.10968106240034103 0.02229333482682705 0.12854258716106415 0.06648864597082138 0.11458008736371994 0.10859682410955429 -0.12287481129169464 0.018172049894928932 -0.04370993748307228 -0.09029217064380646 0.029865441843867302 -0.029474351555109024 0.1220126524567604 0.09796877950429916
0.08025196194648743 0.08619328588247299 -0.05873783305287361 -0.011455037631094456 0.06603401154279709 -0.04571092873811722 0.10067080706357956 -0.059316858649253845 0.11679916083812714 0.2014245092868805 0.12775613367557526 -0.11325912177562714 0.1541368067264557 0.1266637146472931 -0.05635290592908859 -0.19873133301734924 0.07598806172609329 0.08277381211519241 -0.05459936335682869 0.11401215195655823 -0.015635332092642784 -0.08415772020816803 -0.14238037168979645 -0.18720638751983643 -0.09636673331260681 -0.10003933310508728 -0.04574724659323692 0.0562487356364727 -0.16349829733371735 -0.040400221943855286 0.0005498947575688362 -0.06788092851638794 0.004253598395735025 0.08660730719566345 0.10255138576030731 0.008678998798131943 -0.08541613072156906 0.07796528190374374 -0.053169600665569305 0.038381427526474 -0.012030775658786297 0.04720180109143257
0.015363757498562336 -0.04234430566430092 0.2091170996427536 0.12566326558589935 -0.09783778339624405 -0.07036092132329941 0.13002660870552063 -0.013455095700919628 0.0608200766146183 -0.15935631096363068 5.266636435408145e-05 0.18477894365787506 -0.03060123138129711 -0.0803399309515953 0.24283531308174133 -0.1501048505306244 0.17676617205142975 0.1880601942539215 0.061345525085926056 0.1381145864725113 -0.07419592887163162 0.1371535360813141 -0.008824917487800121 -0.17547020316123962 -0.08054753392934799 -0.0035430025309324265 -0.05608054995536804 0.02724863588809967 0.1562829315662384 0.016790008172392845 0.014798225834965706 0.06084465608000755 0.039402786642313004 0.08898201584815979 0.06801576167345047 -0.00996805727481842 0.04090210050344467 -0.1411416381597519 -0.0700928345322609 0.11992990970611572 -0.035013191401958466 -0.12819038331508636
-0.17408956587314606 0.0170332919806242 -0.017757197842001915 0.05190001428127289 0.09791526198387146 0.06810551881790161 -0.005803520791232586 -0.13052503764629364 0.022677266970276833 0.1709558069705963 -0.03440102934837341 0.08059079945087433 0.2688426971435547 0.12029200047254562 0.16268226504325867 -0.11737994104623795 0.08328268676996231 -0.13941413164138794 -0.074570432305336 -0.03573756664991379 -0.051287874579429626 -0.013051983900368214 0.10554119944572449 -0.015348740853369236 -0.08898181468248367 0.06752190738916397 -0.007341380231082439 0.08587202429771423 0.013273844495415688 -0.020384028553962708 -0.007005240768194199 0.13255441188812256 0.15214428305625916 0.020365675911307335 -0.10921335965394974 -0.045167241245508194 -0.04282249137759209 -0.04599567875266075 0.14697201550006866 -0.13465259969234467 0.02884986437857151 0.11999952048063278
-0.11657948791980743 0.08346197009086609 -0.03184306621551514 -0.08944625407457352 0.07449334859848022 0.1152447760105133 0.04966837540268898 -0.09596043080091476 -0.1865176409482956 0.036516547203063965 0.15521445870399475 0.04285641759634018 -0.19123204052448273 0.01069096103310585 -0.12342623621225357 -0.018408237025141716 0.0769260823726654 0.01495309453457594 -0.027220256626605988 0.024198010563850403 0.17242532968521118 0.13420329988002777 -0.14176620543003082 0.11281754821538925 0.045583806931972504 -0.07681654393672943 -0.03756290674209595 0.04550967365503311 0.03795434534549713 0.058529049158096313 0.07697899639606476 0.11439290642738342 0.09883425384759903 0.029164306819438934 -0.13106252253055573 0.06946900486946106 0.10562879592180252 -0.025546466931700706 -0.026311475783586502 -0.13020837306976318 -0.20976755023002625 -0.05997162312269211
-0.13943573832511902 -0.06913167983293533 0.006023199297487736 -0.04409140348434448 0.17760170996189117 -0.036609865725040436 0.08913767337799072 0.011629280634224415 0.1811789870262146 0.20695321261882782 -0.05614796280860901 -0.13018564879894257 0.23537079989910126 0.2227320820093155 0.11020831018686295 -0.10098711401224136 -0.0848846584558487 0.024543095380067825 -0.021823571994900703 -0.03200475871562958 0.07515004277229309 0.07101783156394958 -0.014002424664795399 -0.09063402563333511 0.054885681718587875 0.008298246189951897 0.02364645153284073 -0.10902070254087448 0.002449523890390992 0.09731299430131912 0.09049548953771591 -0.08971653133630753 -0.09290798008441925 0.026415612548589706 0.02904217317700386 0.08543078601360321 0.016046961769461632 0.05535493046045303 0.07852201163768768 0.05771222710609436 -0.06525222212076187 -0.013011346571147442
-0.07033973932266235 0.022866573184728622 -0.04014964774250984 0.07299795001745224 0.07100975513458252 0.01683691143989563 0.09990657866001129 0.12960101664066315 0.17408953607082367 -0.054978519678115845 -0.02749469317495823 0.08773277699947357 0.13991804420948029 0.15248876810073853 -0.08329551666975021 0.036937814205884933 0.09037190675735474 0.029785271733999252 0.14951828122138977 0.09818108379840851 -0.042976900935173035 0.06493967771530151 0.08435507118701935 0.08826079219579697 -0.057556189596652985 0.025074537843465805 -0.11264285445213318 0.11092004925012589 0.16508787870407104 0.03232622146606445 -0.1479651927947998 0.1128934919834137 -0.03666470944881439 0.014865793287754059 -0.07968637347221375 -0.08432795107364655 0.13739970326423645 0.10026657581329346 -0.033794667571783066 0.07237482070922852 -0.12320250272750854 -0.13540026545524597
0.13830716907978058 0.01999972015619278 0.04535524174571037 0.0030959865543991327 0.04946649447083473 0.02885695919394493 0.004122620914131403 0.07399556785821915 -0.0005384575924836099 0.10372596234083176 -0.16143293678760529 -0.06006008759140968 -0.1056581512093544 -0.17934992909431458 0.0790058970451355 0.15754252672195435 -0.0962567999958992 0.008843992836773396 0.13069471716880798 0.2362423688173294 0.0012735812924802303 0.05490051954984665 -0.009405340999364853 -0.039162345230579376 -0.005229042377322912 -0.014881506562232971 -0.05664130300283432 -0.13426510989665985 -0.20399266481399536 -0.13281282782554626 -0.10762358456850052 -0.03859280049800873 0.11323753744363785 -0.05041999742388725 0.04527841880917549 -0.0013973504537716508 -0.07136154919862747 -0.04599953815340996 0.029683038592338562 -0.00035250376095063984 0.0656779408454895 -0.11517062783241272
-0.0372186154127121 0.0057947891764342785 -0.08033215999603271 -0.12816987931728363 0.09431017190217972 0.13310307264328003 -0.0648297369480133 -0.0978347435593605 0.10080569237470627 -0.02340187132358551 0.16372819244861603 0.039840102195739746 0.030236415565013885 0.17141498625278473 0.053131602704524994 -0.14123673737049103 -0.06809835880994797 0.11943235993385315 -0.16097787022590637 -0.13533350825309753 0.08492054790258408 0.08711203932762146 0.06955140829086304 0.05959125608205795 0.03528048098087311 0.13302287459373474 -0.13051430881023407 -0.036857135593891144 0.059489212930202484 -0.04403359442949295 -0.08474483340978622 0.03335307911038399 -0.12208190560340881 -0.07050703465938568 -0.12367566674947739 -0.023377949371933937 -0.12855876982212067 -0.04932861030101776 0.07476234436035156 0.10786959528923035 0.13761720061302185 -0.1062650978565216
0.009844238869845867 -0.04491543397307396 0.15181474387645721 0.14092785120010376 0.0667327269911766 0.133065328001976 0.08045217394828796 0.0038926517590880394 -0.20722398161888123 -0.15003079175949097 0.16241009533405304 0.1338670551776886 -0.199544295668602 -0.1680317372083664 -0.27036023139953613 0.23389828205108643 -0.030276089906692505 -0.108479343354702 -0.18839065730571747 -0.24755093455314636 -0.11330501735210419 -0.13947612047195435 0.08430742472410202 0.13116444647312164 -0.18467040359973907 0.10512257367372513 0.12909777462482452 -0.014951341785490513 0.039250705391168594 0.04232090711593628 -0.10528618842363358 -0.1140570193529129 0.081386998295784 -0.07565280050039291 -0.10266807675361633 -0.031608473509550095 0.03212784230709076 -0.11136231571435928 0.05709575116634369 -0.010951497592031956 0.05058838054537773 -0.06257124245166779
0.055113404989242554 0.045677848160266876 0.05156795680522919 -0.20971640944480896 0.1158289983868599 0.11024332046508789 0.16419705748558044 -0.14322257041931152 0.08110618591308594 -0.18323101103305817 -0.024151723831892014 -0.0016418625600636005 -0.09998868405818939 -0.203677698969841 -0.09005316346883774 0.021874411031603813 -0.1362321525812149 -0.0730142891407013 -0.17287935316562653 0.1175118163228035 0.10944341123104095 -0.09634430706501007 -0.14359045028686523 0.2234242707490921 0.1560411900281906 -0.07180561125278473 0.024389011785387993 0.03282598778605461 -0.029676491394639015 0.1490364968776703 -0.13224977254867554 -0.06986410170793533 -0.13001330196857452 0.09480848908424377 0.0032500571105629206 0.08491753041744232 0.05373583734035492 0.13594238460063934 -0.013283832930028439 -0.02791779674589634 -0.13403649628162384 -0.10447121411561966
0.18032941222190857 -0.0873146802186966 0.0661684051156044 -0.03510919585824013 0.16633646190166473 -0.03692619875073433 -0.04800963029265404 -0.042204756289720535 0.16249430179595947 0.04527313634753227 0.18854811787605286 -0.2623707056045532 0.2666638195514679 0.14330771565437317 0.024811850860714912 -0.14719805121421814 -0.04780977591872215 0.02201896905899048 -0.19780296087265015 0.18178430199623108 -0.05051887407898903 -0.014670901000499725 0.1503693163394928 0.04719490185379982 0.02482658438384533 -0.10716962814331055 0.008741095662117004 -0.05451265722513199 0.11088518053293228 -0.07877776771783829 0.14596137404441833 -0.14049847424030304 -0.03998264670372009 -0.014354133047163486 0.049632154405117035 0.06857269257307053 -0.03507959470152855 -0.08944901823997498 -0.0916820764541626 -0.02442094497382641 -0.027757393196225166 0.001489824615418911
0.20123139023780823 0.07480110228061676 0.1411096453666687 0.0404067263007164 0.10831253975629807 -0.04074711725115776 0.2186802178621292 0.1216772198677063 -0.11372797936201096 -0.18930953741073608 -0.032599058002233505 0.17646411061286926 -0.16778181493282318 -0.051968395709991455 0.19232968986034393 -0.07479006052017212 0.022593464702367783 -0.1814890056848526 0.07466680556535721 -0.01735733076930046 0.06177057325839996 -0.015584309585392475 -0.23949186503887177 0.09359009563922882 -0.0462179034948349 0.008828755468130112 0.09780619293451309 -0.03679869696497917 0.020565222948789597 -0.05724421143531799 0.007377564441412687 -0.04522578790783882 0.014436902478337288 -0.10000056028366089 0.016625506803393364 -0.04726295545697212 -0.044208236038684845 -0.06632578372955322 -0.0669650062918663 -0.009912610054016113 -0.054116103798151016 0.10876987129449844
0.14250031113624573 0.1478344202041626 -0.10296668857336044 0.13540863990783691 -0.043170008808374405 0.06786946207284927 -0.08768405020236969 0.0652557760477066 -0.14944052696228027 0.033493246883153915 0.09678364545106888 -0.09570866078138351 -0.14412736892700195 -0.15241263806819916 0.0698763057589531 -0.1335335671901703 0.15861202776432037 0.07597751915454865 0.0799175426363945 0.20107747614383698 0.2763044536113739 0.06483284384012222 -0.11106804758310318 0.12044677138328552 0.0838008001446724 0.10283748805522919 -0.024302281439304352 0.07965433597564697 0.08905943483114243 0.013487245887517929 0.04971659183502197 0.07133593410253525 -0.005209996365010738 -0.021229751408100128 0.036059316247701645 -0.03668321296572685 -0.04330865293741226 -0.018253261223435402 -0.03239399567246437 -0.0078018587082624435 -0.03678997606039047 0.05359915643930435
-0.0177138801664114 -0.03608770668506622 0.19287757575511932 -0.009786514565348625 -0.04778871685266495 -0.04568372294306755 0.055718135088682175 0.09992347657680511 -0.11867696046829224 -0.183998703956604 0.055220868438482285 0.16399507224559784 -0.05447700247168541 -0.14400377869606018 -0.14180265367031097 0.18163229525089264 -0.035033807158470154 -0.1473594605922699 -0.2863716185092926 -0.2079993039369583 -0.12625111639499664 0.14623795449733734 -0.14429324865341187 0.19137364625930786 0.07162468880414963 -0.02032383345067501 0.013107089325785637 -0.0869833454489708 0.05215412750840187 -0.05279899016022682 0.02179814502596855 0.08729804307222366 -0.09141570329666138 -0.023466309532523155 0.08377353847026825 -0.09465588629245758 -0.06072710454463959 0.17134137451648712 0.11328624933958054 -0.13653232157230377 -0.074374258518219 -0.10675156861543655
-0.06489969789981842 -0.06504122912883759 -0.0005741026834584773 0.042890362441539764 0.01189814880490303 0.12851716578006744 0.12250111252069473 0.014956330880522728 -0.012656742706894875 0.2257681041955948 0.006932487711310387 -0.15793053805828094 0.13968564569950104 0.10944579541683197 -0.1061258390545845 -0.27853307127952576 -0.075040802359581 -0.04787119850516319 0.08296836167573929 0.2366490662097931 -0.21057212352752686 0.028396565467119217 0.09321516007184982 0.1740238517522812 -0.22504612803459167 -0.2107411026954651 0.1021500676870346 0.19048495590686798 -0.05459533631801605 -0.0035403359215706587 0.030391430482268333 -0.011888116598129272 -0.025649474933743477 0.07930507510900497 -0.052344828844070435 -0.05596542730927467 -0.03775672987103462 0.15109235048294067 0.08414807915687561 -0.04886345937848091 -0.00794292613863945 0.1278371810913086
-0.16104333102703094 -0.017193380743265152 -0.10358607023954391 -0.03434013947844505 -0.00749520817771554 0.052521150559186935 -0.17816703021526337 0.004651408642530441 -0.046633217483758926 0.03244875371456146 0.18568481504917145 0.09011194854974747 -0.102199986577034 -0.21190336346626282 -0.005763770081102848 0.007769608870148659 0.08365894109010696 0.014370888471603394 0.012269346974790096 0.1602989137172699 0.10177689045667648 0.04704388603568077 0.1498490422964096 0.10418137907981873 -0.15409210324287415 0.08776719868183136 -0.12173771858215332 -0.1621003895998001 -0.09231339395046234 -0.06161658465862274 -0.10202768445014954 0.013514924794435501 -0.03513490781188011 -0.03715818375349045 -0.030735747888684273 0.051996685564517975 -0.09701303392648697 -0.020347852259874344 0.000176024463144131 -0.022006725892424583 -0.059894394129514694 0.1584736704826355
0.015577541664242744 -0.04406647011637688 -0.20453202724456787 -0.1686875820159912 0.015689997002482414 0.14265720546245575 -0.1896524429321289 -0.15727756917476654 0.11778374016284943 -0.17081552743911743 0.12243630737066269 0.14409156143665314 -0.012673127464950085 -0.2099345624446869 0.014907751232385635 -0.15948323905467987 0.1149948239326477 0.09797791391611099 0.22010904550552368 0.03828778117895126 0.19228403270244598 -0.0035541923716664314 -0.014516889117658138 -0.12862065434455872 -0.09658731520175934 0.11095080524682999 0.019613174721598625 0.10109925270080566 -0.07257059216499329 0.029481008648872375 0.04528101533651352 -0.0672648623585701 -0.031392183154821396 0.051521606743335724 -0.07303977757692337 -0.1075148731470108 0.0386107861995697 -0.0353153795003891 0.03554227948188782 0.10889504104852676 -0.12858028709888458 0.019973672926425934
0.19632607698440552 0.10405036062002182 0.20220816135406494 0.20377470552921295 0.09355592727661133 -0.01903681457042694 0.07840100675821304 0.09917041659355164 -0.23120814561843872 0.07238679379224777 0.07575460523366928 0.15291166305541992 -0.11927676945924759 0.006215751636773348 0.2523837387561798 -0.21413475275039673 0.22436454892158508 -0.12773559987545013 -0.1445622593164444 0.022988544777035713 0.05986134707927704 0.28563588857650757 -0.13483937084674835 0.026822535321116447 0.0030737677589058876 -0.058831486850976944 0.03887711092829704 -0.02816462516784668 -0.025190331041812897 -0.04177384451031685 -0.05202149972319603 -0.0061424495652318 -0.057178277522325516 -0.15904048085212708 -0.10651758313179016 0.031400229781866074 -0.015851659700274467 -0.06649498641490936 -0.07603156566619873 -0.05618741735816002 0.1306101381778717 0.06840191036462784
-0.000584395311307162 -0.07408133894205093 0.1824871152639389 0.14541181921958923 0.06989482790231705 -0.1284649819135666 -0.04482239484786987 -0.11173561215400696 -0.050765812397003174 0.074429951608181 0.13101808726787567 -0.1725829839706421 -0.05316662788391113 0.07576725631952286 0.22346611320972443 -0.14835681021213531 -0.16210071742534637 -0.039692945778369904 0.1199665442109108 -0.07532944530248642 -0.2100847214460373 -0.1606626659631729 -0.176950141787529 0.02468874305486679 -0.1742812991142273 0.07191705703735352 0.026278818026185036 -0.1163383424282074 -0.01077681127935648 0.2112838625907898 -0.041094452142715454 -0.16767480969429016 0.14482854306697845 0.12049277126789093 0.0364634171128273 -0.024067364633083344 0.01936839520931244 -0.054244060069322586 0.03183773532509804 0.17662833631038666 0.06767803430557251 -0.06826895475387573
-0.027012012898921967 -0.05905408784747124 0.13963815569877625 0.04047524929046631 0.18192817270755768 0.05634084343910217 0.09414886683225632 0.014468804933130741 0.04722342640161514 0.03867250680923462 0.12025696039199829 0.026691338047385216 0.14278307557106018 0.2107333391904831 0.033053118735551834 0.12309055775403976 -0.08176274597644806 0.26049336791038513 -0.028805721551179886 -0.07811149209737778 0.25792455673217773 -0.05059874802827835 0.023478209972381592 -0.12975002825260162 0.0032517295330762863 0.11249501258134842 -0.14596307277679443 -0.07358856499195099 0.060541003942489624 -0.10444781929254532 0.04843038693070412 -0.06971333175897598 -0.09474480897188187 0.060820482671260834 -0.078485868871212 0.024552535265684128 0.08623459935188293 0.12984353303909302 -0.06951841711997986 -0.1335631161928177 0.0017998000839725137 -0.04037543386220932
0.07268664240837097 0.044888343662023544 -0.09452100098133087 0.017240095883607864 0.16984449326992035 0.051089320331811905 -0.2040310949087143 0.000978620140813291 0.06506390869617462 0.08962497860193253 -0.17384393513202667 -0.10377483814954758 0.1032775267958641 0.06812938302755356 0.10427989810705185 -0.1629844605922699 -0.11665591597557068 -0.2058742344379425 -0.0891277939081192 -0.02596987411379814 0.11593503504991531 0.08900269865989685 0.20054404437541962 0.019928764551877975 -0.02672985941171646 0.12879005074501038 0.03421664983034134 0.07518940418958664 -0.10341477394104004 0.046704959124326706 -0.11485052108764648 -0.031535789370536804 -0.13329525291919708 0.094413161277771 -0.07586725056171417 -0.11269700527191162 0.09716261923313141 -0.008862566202878952 0.023565487936139107 0.14010590314865112 -0.016673915088176727 -0.01670997217297554
-0.03624354675412178 0.12788744270801544 -0.008730713278055191 0.005270923487842083 0.10217587649822235 0.06311360001564026 0.05290278419852257 0.16579926013946533 0.068641297519207 0.033610280603170395 0.07615616917610168 0.10607477277517319 -0.1632799655199051 -0.17629225552082062 0.016327911987900734 -0.02395520731806755 0.0614980012178421 -0.08770278841257095 -0.012294595129787922 0.10069819539785385 -0.02303561381995678 0.015067542903125286 0.015639260411262512 -0.04096142202615738 0.06090860068798065 -0.044861774891614914 0.11019188910722733 0.11983225494623184 -0.19592922925949097 0.03549883887171745 0.017949484288692474 0.10071364790201187 0.02332393079996109 -0.18476387858390808 -0.11103621870279312 0.015419027768075466 -0.030666476115584373 -0.06995076686143875 0.07241536676883698 -0.08468014001846313 0.11695702373981476 0.06714951992034912
-0.08724960684776306 0.08218353241682053 0.0017283520428463817 -0.07188062369823456 0.010621166788041592 -0.11887094378471375 -0.09223801642656326 -0.18899627029895782 0.05525777488946915 -0.1793212741613388 -0.07185894250869751 -0.1692732572555542 0.15373535454273224 -0.2782951891422272 0.0025823928881436586 -0.09153179079294205 -0.16283074021339417 -0.012873600237071514 0.1525896191596985 0.2294890433549881 0.06184161826968193 0.11016057431697845 -0.12532196938991547 0.1116839349269867 0.2801087498664856 0.1459963023662567 -0.05615263059735298 0.09167128056287766 -0.15279525518417358 -0.06786710023880005 0.011037486605346203 0.02792412042617798 0.015729675069451332 0.1291697919368744 0.05220584571361542 0.012496345676481724 -0.009214245714247227 -0.004938321188092232 0.04645096883177757 -0.036262571811676025 -0.02824987843632698 -0.06037146970629692
0.16635102033615112 -0.09566526859998703 0.10551775991916656 0.03734569996595383 0.02068193443119526 0.062465276569128036 -0.015508373267948627 0.05894482880830765 0.190102681517601 0.13287799060344696 0.05097883939743042 -0.14283734560012817 0.16099075973033905 0.22474564611911774 -0.001457524485886097 -0.05363680422306061 -0.12260425090789795 0.14343571662902832 -0.03180398419499397 0.22425977885723114 -0.11434454470872879 -0.13093136250972748 0.07456633448600769 -0.036379192024469376 -0.08682336658239365 0.1171220913529396 0.14810246229171753 0.09029282629489899 -0.019200149923563004 0.10526326298713684 0.09334396570920944 0.11492465436458588 0.18102487921714783 0.059359971433877945 -0.03656903654336929 0.09583956748247147 0.06421710550785065 -0.11784631758928299 -0.057949554175138474 0.09372246265411377 -0.027615884318947792 0.1061839759349823
0.07895210385322571 0.06989686191082001 0.08508992195129395 -0.03376588225364685 -0.09378279000520706 -0.07602069526910782 0.08368656784296036 0.051319438964128494 -0.1984895020723343 0.05307679623365402 -0.19640974700450897 -0.16402900218963623 -0.07490561157464981 0.044056765735149384 -0.20429126918315887 -0.037089645862579346 -0.015212464146316051 -0.10500818490982056 -0.08598631620407104 -0.07400147616863251 0.14187651872634888 0.0984441414475441 -0.20475010573863983 0.0771554708480835 -0.08177608996629715 0.04298951476812363 0.2020132690668106 -0.14385737478733063 0.18065479397773743 -0.10721809417009354 -0.04363233596086502 -0.03512071818113327 0.050585050135850906 -0.011973515152931213 0.13350068032741547 -0.092658631503582 0.0791439637541771 -0.09900413453578949 -0.050848446786403656 -0.031003404408693314 -0.06206027418375015 0.08369986712932587
-0.12752993404865265 -0.0479641854763031 -0.04050815477967262 0.09723978489637375 -0.025846092030405998 -0.0330064594745636 -0.013993279077112675 0.08434410393238068 0.14692442119121552 0.017091941088438034 -0.010219520889222622 -0.08138466626405716 0.0323980450630188 0.03064105659723282 -0.04697659984230995 -0.16442495584487915 0.1421060562133789 0.026848793029785156 0.007839914411306381 -0.17046226561069489 -0.04488518461585045 -0.11719825863838196 0.012415394186973572 0.06260408461093903 0.06409343332052231 -0.15747132897377014 -0.0534706674516201 -0.12730905413627625 -0.2351866066455841 -0.07111458480358124 0.00346126826480031 -0.1305200308561325 -0.017306629568338394 -0.2478221356868744 0.1314062923192978 -0.03048054315149784 -0.11931511759757996 0.11678693443536758 -0.0022164899855852127 -0.009542632848024368 0.09825161099433899 0.020764749497175217
-0.08780048042535782 0.1880447268486023 0.008865500800311565 0.2127867192029953 -0.05211382731795311 0.10311506688594818 0.06117216497659683 0.05017489939928055 -0.1370307356119156 0.08831563591957092 0.1492086946964264 0.18621715903282166 -0.19182826578617096 -0.18582192063331604 0.19107313454151154 -0.06665778905153275 0.14245939254760742 0.12965820729732513 -0.13322573900222778 0.0067586046643555164 0.06950686872005463 0.16822287440299988 -0.03515035659074783 -0.0024113729596138 0.026297274976968765 -0.010936593636870384 0.08074289560317993 -0.0673566460609436 0.008379161357879639 0.06668728590011597 0.044141173362731934 0.016107458621263504 -0.1216445043683052 -0.028616780415177345 0.04989063739776611 0.11145395040512085 -0.054978661239147186 -0.13658559322357178 0.025016043335199356 -0.05187765136361122 0.06962691247463226 0.041052281856536865
-0.11580288410186768 0.08400563895702362 0.10445989668369293 0.007654700428247452 -0.058640096336603165 0.07766536623239517 -0.09997227787971497 0.22191917896270752 -0.22726599872112274 0.06851332634687424 0.17793136835098267 0.0003875025431625545 -0.27346980571746826 -0.04223273694515228 -0.03559949994087219 0.27501118183135986 0.029567379504442215 -0.10510090738534927 -0.17594453692436218 -0.09787292033433914 -0.11150731891393661 -0.03661762550473213 -0.04905560612678528 0.12773190438747406 0.014138218015432358 -0.13420581817626953 0.08494395762681961 0.06839806586503983 -0.004207323305308819 -0.09635625034570694 -0.04926730692386627 -0.04454640671610832 -6.199503695825115e-05 -0.04614643752574921 -0.034380849450826645 -0.0459984615445137 0.05560067668557167 0.023274511098861694 0.015051818452775478 -0.03283727169036865 -0.06439302116632462 -0.05433540418744087
-0.001209698268212378 0.06356485188007355 0.17056040465831757 0.029308496043086052 0.08040311932563782 0.0019311865326017141 0.1920887976884842 0.20617063343524933 -0.14345361292362213 -0.10044476389884949 0.03946390002965927 0.20620891451835632 0.0156205203384161 0.058647748082876205 0.17506185173988342 0.16017109155654907 0.002646205248311162 -0.09625260531902313 -0.1419018656015396 -0.11753277480602264 -0.19773422181606293 -0.11070539802312851 0.037047065794467926 -0.04282722249627113 -0.024021819233894348 0.08861356228590012 -0.01256167609244585 -0.020869124680757523 0.014373804442584515 -0.07521463185548782 0.09210387617349625 0.012430292554199696 0.11805281043052673 -0.1105446144938469 -0.05790219083428383 -0.00929022766649723 0.009912114590406418 0.08281374722719193 -0.08567158132791519 -0.03518109396100044 0.0814625471830368 0.009667222388088703
-0.039255864918231964 -0.16705147922039032 -0.14568820595741272 -0.05183107405900955 -0.02529279701411724 -0.03131081163883209 -0.006976453121751547 -0.042523808777332306 0.05565045773983002 -0.007653193082660437 0.093387171626091 -0.08602361381053925 0.04712202772498131 -0.2722390294075012 -0.17550699412822723 0.16026745736598969 -0.19890977442264557 -0.027707086876034737 0.07161880284547806 -0.21091054379940033 -0.16338692605495453 -0.13499809801578522 -0.006254057865589857 0.0308980792760849 0.09874087572097778 0.08556448668241501 0.11970832943916321 -0.05442533269524574 -0.033832941204309464 -0.12725505232810974 0.032280802726745605 -0.08045145869255066 -0.07874074578285217 -0.13693402707576752 0.06515723466873169 -0.05132824927568436 -0.1277293562889099 0.016423363238573074 0.08112800121307373 -0.008121615275740623 -0.008442139253020287 -0.01913156546652317
-0.09754350036382675 0.029890667647123337 -0.09515701979398727 -0.0790383592247963 -0.014772196300327778 0.0025984407402575016 -0.059509117156267166 0.08618059009313583 -0.1585773378610611 -0.01364877913147211 -0.020616929978132248 -0.09251172840595245 -0.1321011185646057 -0.16031332314014435 -0.13536188006401062 -0.0506456084549427 -0.0495900884270668 -0.05982416123151779 -0.10008887946605682 -0.16885069012641907 0.09837507456541061 -0.2545868456363678 0.1608591377735138 -0.09059181064367294 -0.18945251405239105 0.056093379855155945 -0.014796012081205845 0.06952894479036331 -0.06610608100891113 -0.13308210670948029 0.04631972685456276 0.15018019080162048 -0.09721453487873077 0.13718950748443604 0.034658029675483704 -0.03815186396241188 0.08122316002845764 -0.025517474859952927 0.04210083186626434 0.029510611668229103 0.09580753743648529 0.11271719634532928
0.15611302852630615 0.09357046335935593 0.1784309595823288 0.19592611491680145 0.11222472041845322 0.072395458817482 -0.009534654207527637 -0.08090905845165253 0.028571993112564087 0.10905811935663223 0.061708055436611176 -0.062386177480220795 -0.042972978204488754 -0.007438561879098415 -0.002535182051360607 -0.17262601852416992 -0.04570474475622177 0.22678110003471375 -0.1054062694311142 0.1781569868326187 -0.19680280983448029 -0.12652668356895447 -0.14383316040039062 -0.11901911348104477 -0.02738620713353157 0.09695117920637131 0.163721963763237 -0.020644845440983772 0.01793062873184681 0.1072850301861763 -0.0638732984662056 -0.015148750506341457 -0.13328233361244202 0.13098599016666412 -0.17264433205127716 -0.025983626022934914 0.07968292385339737 0.06351301074028015 -0.14196790754795074 -0.070346899330616 0.08554581552743912 0.01751909777522087
0.12471888959407806 -0.10988141596317291 0.13702541589736938 -0.07859762012958527 0.03997378051280975 -0.026390312239527702 0.12212873995304108 0.08447021245956421 0.20421373844146729 0.16632047295570374 0.20627965033054352 -0.14845871925354004 0.1995367854833603 0.18330538272857666 -0.02696174383163452 0.07638300955295563 0.013717020861804485 0.230121910572052 0.16380912065505981 -0.05825556814670563 0.16330716013908386 -0.13493658602237701 0.04889858514070511 -0.05498727783560753 0.07061832398176193 0.047695036977529526 0.10097580403089523 -0.032422635704278946 -0.11051197350025177 0.0038661507423967123 0.04438083991408348 0.11927986890077591 0.08105403929948807 0.1501963883638382 -0.015805227681994438 0.016344498842954636 0.025348743423819542 -0.03421609848737717 -0.018036777153611183 -0.03261137008666992 0.004191324580460787 0.06007351726293564
-0.17685702443122864 0.050448354333639145 -0.1534210443496704 0.04991218075156212 0.1287176012992859 0.11298741400241852 -0.02323635295033455 0.11037787050008774 -0.07065629214048386 -0.030812524259090424 -0.044734638184309006 0.12841223180294037 0.1561666578054428 0.14704693853855133 0.0238533653318882 0.03751348331570625 -0.06848210096359253 -0.0490647591650486 -0.13149158656597137 -0.0856005847454071 0.03498947247862816 0.004148926120251417 -0.07065944373607635 0.027279820293188095 -0.1245390996336937 0.14106044173240662 -0.016299432143568993 -0.04866715520620346 -0.12828484177589417 -0.10246878117322922 0.005538050085306168 0.09331221133470535 -0.06972520053386688 -0.08062390983104706 0.0860055685043335 -0.007897567935287952 -0.1521233767271042 -0.024514630436897278 0.17468704283237457 -0.08937247097492218 -0.23476524651050568 0.052208077162504196
0.2109178751707077 -0.09038200229406357 0.1990150511264801 0.09822976589202881 -0.15234926342964172 -0.15303775668144226 0.1082589402794838 -0.017543422058224678 0.03150460124015808 0.024669848382472992 -0.034567441791296005 0.1194838359951973 -0.2298535704612732 -0.06201760470867157 0.1087658628821373 0.18153934180736542 -0.07042185217142105 -0.10030266642570496 -0.08207660913467407 -0.05827651917934418 -0.011076388880610466 -0.07635661214590073 0.09765183925628662 -0.11167965829372406 -0.03129921853542328 -0.1607103943824768 0.08617307245731354 -0.0432300865650177 -0.10233165323734283 0.09678306430578232 -0.08907561749219894 -0.12283879518508911 -0.1291843205690384 0.11400711536407471 -0.09024922549724579 0.17850381135940552 0.08171543478965759 0.019790492951869965 0.14857548475265503 -0.06393195688724518 0.02114926651120186 0.05521019920706749
-0.08362215012311935 0.056780677288770676 0.021034058183431625 -0.011129901744425297 -0.061442457139492035 -0.040092192590236664 -0.03186633437871933 0.07806019484996796 -0.01143848430365324 -0.10951782763004303 0.06397978216409683 -0.10073785483837128 0.09646452963352203 -0.2226225882768631 -0.12892064452171326 -0.049813296645879745 0.0457681305706501 0.215165913105011 0.12046030908823013 -0.06951459497213364 -0.028759058564901352 -0.017191238701343536 -0.0268813818693161 -0.02934751845896244 -0.019768839702010155 0.013353578746318817 0.09971535205841064 0.026699258014559746 -0.08158035576343536 -0.12792783975601196 0.13515515625476837 -0.07618001848459244 -0.00235537625849247 -0.048055827617645264 -0.07790310680866241 -0.07786589115858078 -0.14935895800590515 0.1591145396232605 -0.1402669996023178 0.10254105925559998 -0.14997416734695435 0.07830922305583954
0.05761530250310898 0.08554820716381073 0.13880442082881927 0.18833069503307343 -0.03533903509378433 0.07060633599758148 0.02503398433327675 0.12194928526878357 -0.008896893821656704 -0.1791631430387497 0.10945774614810944 0.1415625363588333 -0.16753578186035156 -0.23484550416469574 0.2330256700515747 -0.13867603242397308 0.028143731877207756 -0.13584601879119873 0.05503266304731369 0.16118593513965607 0.2394956797361374 -0.0076986029744148254 -0.17571640014648438 0.0029873892199248075 -0.04393940046429634 0.17851530015468597 0.060597360134124756 0.033742453902959824 0.003544352948665619 0.06617961823940277 0.07044731825590134 0.0456068180501461 0.009642009623348713 0.05272525176405907 0.10417435318231583 -0.05888750031590462 0.09854329377412796 0.006358184386044741 -0.03678130730986595 0.0014793858863413334 -0.008358912542462349 -0.07220914214849472
0.04675501957535744 -0.08228439092636108 0.08247536420822144 0.19212040305137634 0.14485549926757812 0.04134674370288849 -0.043742429465055466 -0.07766274362802505 -0.10301864147186279 -0.17314182221889496 0.13071182370185852 0.1644614338874817 -0.10528307408094406 -0.05164240300655365 0.14807581901550293 -0.11711565405130386 0.006679433863610029 0.0121794193983078 -0.01956312730908394 0.1244967058300972 0.17421476542949677 0.11318279057741165 -0.08771547675132751 -0.06579393148422241 -0.08204621076583862 -0.1315341293811798 0.06862251460552216 -0.029119158163666725 -0.030932938680052757 -0.12398771941661835 -0.07862451672554016 0.0010701402788981795 -0.054062094539403915 -0.08161404728889465 -0.08572086691856384 0.003611769061535597 0.04273592308163643 -0.04185829311609268 0.059793658554553986 0.05285815894603729 0.06523993611335754 -0.008786243386566639
-0.008162472397089005 0.012161134742200375 0.13532590866088867 0.023287570104002953 -0.08192896097898483 -0.05071258917450905 0.11750795692205429 0.038676414638757706 -0.11468729376792908 -0.014145542867481709 -0.2177276760339737 0.0558537133038044 -0.12323156744241714 -0.16364707052707672 0.21461112797260284 -0.1969406008720398 0.20692317187786102 0.24252164363861084 0.12615540623664856 0.2362591177225113 0.1023903340101242 0.019393064081668854 0.010164004750549793 0.10552994161844254 0.09029819071292877 -0.1434960514307022 -0.11467642337083817 0.044043347239494324 0.12795177102088928 -0.20644252002239227 0.07785600423812866 0.0004682802828028798 -0.04803364723920822 -0.11769074946641922 -0.06464584171772003 -0.022159602493047714 0.07999908179044724 0.1001412495970726 0.167734757065773 -0.04362142086029053 0.16053089499473572 -0.13033491373062134
-0.06981541961431503 0.001817113603465259 0.18032602965831757 0.03816445544362068 0.16610656678676605 0.08700839430093765 0.14745162427425385 -0.07319284975528717 -0.1350930631160736 0.038905154913663864 0.03704244643449783 -0.008196904323995113 -0.20720671117305756 -0.1168215423822403 0.036428302526474 -0.05160251259803772 -0.04865496978163719 0.03621400147676468 0.2093493491411209 0.1821812391281128 0.23217979073524475 -0.014794749207794666 0.09802848100662231 -0.04549149423837662 0.0030407339800149202 -0.012593132443726063 -0.024987896904349327 -0.02785135619342327 0.14678151905536652 0.0050582317635416985 0.035479169338941574 0.08018968999385834 0.01112431287765503 -0.12764841318130493 -0.03377420827746391 -0.0462837889790535 0.009163189679384232 0.07008396089076996 -0.016628142446279526 0.04367111623287201 -0.013010181486606598 0.002047919202595949
-0.1286904364824295 0.10668046027421951 -0.015825634822249413 0.014458108693361282 -0.012084431014955044 -0.03217659890651703 0.09582417458295822 0.1725141853094101 -0.11841508001089096 -0.15864898264408112 -0.1710735708475113 -0.05775443837046623 0.03075096756219864 -0.03418939560651779 -0.12443093210458755 0.16951164603233337 0.0642237514257431 0.10236498713493347 -0.14494425058364868 -0.2238946259021759 -0.1636035293340683 -0.10604020953178406 0.014755209907889366 0.02613736130297184 -0.05547770857810974 0.130535289645195 0.0019200461683794856 0.08420757204294205 -0.04269484803080559 -0.0007500561187043786 0.08684051781892776 0.08141756802797318 0.1029195785522461 0.010436991229653358 -0.06774026900529861 -0.1438807100057602 -0.026903126388788223 0.07429195940494537 -0.1377859264612198 -0.08997596800327301 0.07077600061893463 -0.08276237547397614
0.08242836594581604 0.0042022340930998325 0.21350319683551788 0.09604951739311218 0.0932873785495758 0.018464529886841774 0.1401037573814392 0.03815101459622383 -0.06121876463294029 -0.05417187511920929 -0.031924404203891754 -0.02715320698916912 -0.08434269577264786 0.022723989561200142 0.08782007545232773 0.032121915370225906 0.015676891431212425 0.05131729692220688 0.03231900930404663 -0.08484812825918198 0.0919966921210289 -0.03155350685119629 0.09065645933151245 -0.13188199698925018 -0.001531659159809351 0.12509290874004364 -0.03163266181945801 -0.15225914120674133 0.13674631714820862 0.012207836844027042 0.1262263059616089 0.20437438786029816 -0.14092731475830078 0.021056871861219406 0.09930773824453354 -0.03170621022582054 -0.07867276668548584 -0.10516474395990372 -0.055180348455905914 -0.09650231152772903 -0.005505742970854044 0.1321195662021637
-0.028958162292838097 0.23297984898090363 -0.0718296617269516 0.17016498744487762 0.14647676050662994 -0.02385012060403824 0.11880273371934891 0.23109212517738342 -0.20432068407535553 0.008654965087771416 0.006586769595742226 0.24826554954051971 -0.33196890354156494 -0.026109380647540092 0.20524851977825165 -0.14386413991451263 0.07981035858392715 0.16479627788066864 0.1684340238571167 0.14681802690029144 -0.004430832806974649 -0.04314640164375305 0.1226276308298111 -0.09743278473615646 -0.08698394894599915 0.08292330801486969 0.07874220609664917 -0.09587438404560089 0.11198239773511887 0.007393845357000828 0.10156440734863281 -0.1002001091837883 0.011582694947719574 0.06988950818777084 -0.000808682874776423 -0.04117279872298241 -0.005622144788503647 -0.017916500568389893 0.03022163175046444 0.025215186178684235 -0.04081554710865021 0.08097980171442032
